<?xml version="1.0"?>
<opencv_storage>
<opencv_ml_svm>
  <format>3</format>
  <svmType>C_SVC</svmType>
  <kernel>
    <type>LINEAR</type></kernel>
  <C>1.</C>
  <term_criteria><epsilon>1.1920928955078125e-07</epsilon>
    <iterations>1000</iterations></term_criteria>
  <var_count>13200</var_count>
  <class_count>2</class_count>
  <class_labels type_id="opencv-matrix">
    <rows>2</rows>
    <cols>1</cols>
    <dt>i</dt>
    <data>
      -1 1</data></class_labels>
  <sv_total>1</sv_total>
  <support_vectors>
    <_>
      9.90316621e-05 1.01234786e-04 8.56609186e-05 1.04356353e-04
      1.08031280e-04 1.15339084e-04 1.26062107e-04 1.28800151e-04
      1.34746544e-04 1.51659828e-04 1.79832612e-04 1.82505755e-04
      1.93579646e-04 2.11021164e-04 2.09946462e-04 2.23299328e-04
      2.25085081e-04 2.26210090e-04 2.28350284e-04 2.43045884e-04
      2.38135006e-04 2.38643508e-04 2.38653665e-04 2.36510299e-04
      2.30552192e-04 2.30393824e-04 2.31506085e-04 2.31116515e-04
      2.38188863e-04 2.46613869e-04 2.53770559e-04 2.60677916e-04
      2.62026850e-04 2.59364460e-04 2.62561283e-04 2.81177781e-04
      2.82984460e-04 2.81314249e-04 2.77542887e-04 2.93853052e-04
      2.93706806e-04 2.95260223e-04 3.08173418e-04 3.07501527e-04
      3.18220118e-04 3.19848768e-04 3.20141728e-04 3.25474452e-04
      3.33094911e-04 3.42383282e-04 3.50774004e-04 3.52093397e-04
      3.59416415e-04 3.65517102e-04 3.66426859e-04 3.68103589e-04
      3.68809648e-04 3.69341491e-04 3.76317766e-04 3.79338599e-04
      3.80567421e-04 3.82715632e-04 3.83100531e-04 3.88006272e-04
      3.90865433e-04 3.94734030e-04 4.03769081e-04 4.05487517e-04
      4.05698345e-04 4.05713683e-04 4.07103507e-04 4.06770181e-04
      4.07326908e-04 4.04842198e-04 4.05136292e-04 4.12272231e-04
      4.13773436e-04 4.14627546e-04 4.16246912e-04 4.18259850e-04
      4.18649375e-04 4.18733194e-04 4.18921612e-04 4.22921265e-04
      4.25153004e-04 4.27262654e-04 4.29027190e-04 4.29786276e-04
      4.30057960e-04 4.30041662e-04 4.30838874e-04 4.32921079e-04
      4.33949550e-04 4.33401612e-04 4.33921174e-04 4.34712623e-04
      4.34983085e-04 4.38185351e-04 4.39189869e-04 4.41841665e-04
      4.42826655e-04 4.45688638e-04 4.46006889e-04 4.47482744e-04
      4.48454288e-04 4.49370971e-04 4.49643732e-04 4.49614396e-04
      4.51496628e-04 4.52122389e-04 4.52457229e-04 4.54017048e-04
      4.54887399e-04 4.56859096e-04 4.57316259e-04 4.58984723e-04
      4.60564450e-04 4.61862655e-04 4.62727476e-04 4.64641606e-04
      4.65375779e-04 4.67246660e-04 4.68109531e-04 4.70898114e-04
      4.72938031e-04 4.72937565e-04 4.72867017e-04 4.75515553e-04
      4.77175432e-04 4.78485250e-04 4.79260547e-04 4.77515336e-04
      4.79474984e-04 4.79347102e-04 4.81837138e-04 4.82148957e-04
      4.82031814e-04 4.84615943e-04 4.82602394e-04 4.84671356e-04
      4.86596138e-04 4.91262297e-04 4.90149017e-04 4.91514162e-04
      4.93724423e-04 4.94320237e-04 4.95435554e-04 4.96120076e-04
      4.98815789e-04 4.99686517e-04 5.01959643e-04 5.02271636e-04
      5.02302253e-04 5.02718671e-04 5.03815536e-04 5.07496239e-04
      5.10492595e-04 5.11204766e-04 5.11755177e-04 5.14533371e-04
      5.15452120e-04 5.15500549e-04 5.16609231e-04 5.17287932e-04
      5.21465205e-04 5.21383539e-04 5.24842471e-04 5.25475712e-04
      5.25770418e-04 5.29200013e-04 5.29759098e-04 5.30196528e-04
      5.30411664e-04 5.31169411e-04 5.35242143e-04 5.35689993e-04
      5.38647699e-04 5.39121917e-04 5.40205394e-04 5.41822112e-04
      5.42905880e-04 5.43186383e-04 5.43849252e-04 5.44597046e-04
      5.44641691e-04 5.44784882e-04 5.45713177e-04 5.42749767e-04
      5.43365604e-04 5.44532784e-04 5.45149145e-04 5.46340481e-04
      5.50400466e-04 5.51185280e-04 5.51682780e-04 5.53319056e-04
      5.53513411e-04 5.54129947e-04 5.57206222e-04 5.58241270e-04
      5.59604436e-04 5.60634071e-04 5.62431233e-04 5.64314367e-04
      5.65742317e-04 5.69891534e-04 5.71307261e-04 5.72559540e-04
      5.73070080e-04 5.74294303e-04 5.75764105e-04 5.78021223e-04
      5.79665939e-04 5.80323278e-04 5.83664747e-04 5.85327914e-04
      5.90723008e-04 5.91288612e-04 5.92866912e-04 5.93714823e-04
      5.93939621e-04 5.95215650e-04 5.95556106e-04 5.96744823e-04
      5.97523467e-04 5.97757171e-04 6.00354630e-04 6.00425585e-04
      6.00508531e-04 6.01073843e-04 6.01473788e-04 6.02034386e-04
      6.05074165e-04 6.07408409e-04 6.07452763e-04 6.07757305e-04
      6.08763832e-04 6.10612798e-04 6.11801923e-04 6.12910837e-04
      6.13176904e-04 6.13194657e-04 6.14642107e-04 6.14879769e-04
      6.16370060e-04 6.14831690e-04 6.15940022e-04 6.15940022e-04
      6.17170706e-04 6.19222992e-04 6.19730214e-04 6.20340579e-04
      6.20195235e-04 6.21551881e-04 6.23520929e-04 6.24408072e-04
      6.26335619e-04 6.27686502e-04 6.28341280e-04 6.30794500e-04
      6.31781935e-04 6.33518852e-04 6.33839983e-04 6.35008037e-04
      6.36303565e-04 6.38909405e-04 6.40329032e-04 6.40875369e-04
      6.42789935e-04 6.42110419e-04 6.44184009e-04 6.44781860e-04
      6.44767948e-04 6.46330067e-04 6.45786116e-04 6.45969005e-04
      6.48187415e-04 6.50333124e-04 6.50408561e-04 6.50511065e-04
      6.51339011e-04 6.51447743e-04 6.52473944e-04 6.52012124e-04
      6.52224000e-04 6.52947929e-04 6.53860159e-04 6.54623378e-04
      6.55758427e-04 6.57939876e-04 6.59805373e-04 6.60480233e-04
      6.61526341e-04 6.62562496e-04 6.63015584e-04 6.64145686e-04
      6.64209656e-04 6.64841966e-04 6.65522879e-04 6.66094536e-04
      6.66407635e-04 6.66823937e-04 6.67054090e-04 6.67251938e-04
      6.66246866e-04 6.66418055e-04 6.66541164e-04 6.65966247e-04
      6.65904372e-04 6.66027365e-04 6.66186796e-04 6.66961248e-04
      6.68213062e-04 6.69628149e-04 6.70041773e-04 6.70900452e-04
      6.71054237e-04 6.70627051e-04 6.71404647e-04 6.74389477e-04
      6.74463517e-04 6.74526615e-04 6.74657174e-04 6.74758980e-04
      6.74862531e-04 6.74862531e-04 6.74915442e-04 6.74895826e-04
      6.75721676e-04 6.76349504e-04 6.76349504e-04 6.78629440e-04
      6.78679673e-04 6.79806224e-04 6.80000754e-04 6.81799371e-04
      6.82709506e-04 6.83377555e-04 6.85753184e-04 6.87891676e-04
      6.88023982e-04 6.89089065e-04 6.89280860e-04 6.89276785e-04
      6.91682391e-04 6.91946130e-04 6.92737754e-04 6.94438349e-04
      6.95537368e-04 6.95630501e-04 6.95945113e-04 6.96345116e-04
      6.96896459e-04 6.96950185e-04 6.98610849e-04 6.99454162e-04
      6.99810742e-04 7.00241537e-04 7.01950863e-04 7.02189456e-04
      7.02737772e-04 7.03243655e-04 7.03688886e-04 7.05828075e-04
      7.07322150e-04 7.08656560e-04 7.06870633e-04 7.06766616e-04
      7.07813248e-04 7.08370004e-04 7.09158368e-04 7.10283348e-04
      7.11545639e-04 7.11982255e-04 7.12195528e-04 7.11561297e-04
      7.11947505e-04 7.12978595e-04 7.13677320e-04 7.15630769e-04
      7.16643932e-04 7.17506628e-04 7.18373747e-04 7.18417810e-04
      7.18705764e-04 7.18283118e-04 7.18452211e-04 7.18753086e-04
      7.20267999e-04 7.21444667e-04 7.21127668e-04 7.22390425e-04
      7.23398349e-04 7.23491248e-04 7.23992242e-04 7.24262500e-04
      7.25645572e-04 7.26067345e-04 7.25572289e-04 7.24847487e-04
      7.24361744e-04 7.24519487e-04 7.24674086e-04 7.23921810e-04
      7.23505917e-04 7.23686593e-04 7.25269027e-04 7.25183752e-04
      7.26457918e-04 7.26887840e-04 7.28541811e-04 7.27839768e-04
      7.28500832e-04 7.29384948e-04 7.30361149e-04 7.29641470e-04
      7.29931344e-04 7.30874308e-04 7.32114131e-04 7.34631554e-04
      7.34631554e-04 7.35060137e-04 7.35465903e-04 7.35046575e-04
      7.35300942e-04 7.35984941e-04 7.36396702e-04 7.36893271e-04
      7.35635462e-04 7.36123417e-04 7.36554328e-04 7.36223068e-04
      7.36553920e-04 7.35802809e-04 7.35447509e-04 7.35155249e-04
      7.34593661e-04 7.35178357e-04 7.36878894e-04 7.38166040e-04
      7.38748640e-04 7.39022624e-04 7.39388401e-04 7.41108204e-04
      7.41679512e-04 7.42369506e-04 7.44004617e-04 7.43686105e-04
      7.44664809e-04 7.45275407e-04 7.44616438e-04 7.45336758e-04
      7.45658530e-04 7.45669822e-04 7.46557314e-04 7.46103586e-04
      7.46859703e-04 7.47435901e-04 7.46835722e-04 7.47086306e-04
      7.45348283e-04 7.44893856e-04 7.45343626e-04 7.46573496e-04
      7.46500038e-04 7.47196202e-04 7.47475715e-04 7.45764060e-04
      7.46194331e-04 7.46275357e-04 7.46814185e-04 7.45995727e-04
      7.46306381e-04 7.46535545e-04 7.46569305e-04 7.46874895e-04
      7.47736194e-04 7.48623221e-04 7.47686543e-04 7.48328515e-04
      7.46792241e-04 7.47806916e-04 7.46845850e-04 7.48387189e-04
      7.47598126e-04 7.47793354e-04 7.46981357e-04 7.46792415e-04
      7.48709892e-04 7.50581850e-04 7.50866544e-04 7.49946863e-04
      7.50539824e-04 7.50778127e-04 7.51338608e-04 7.51101295e-04
      7.50637439e-04 7.52270687e-04 7.52796012e-04 7.53583037e-04
      7.53769826e-04 7.55002373e-04 7.55891204e-04 7.57109374e-04
      7.57197675e-04 7.56948779e-04 7.57595408e-04 7.58510665e-04
      7.58202164e-04 7.57607108e-04 7.57625094e-04 7.56686903e-04
      7.57179281e-04 7.57359667e-04 7.57609843e-04 7.57560600e-04
      7.56668393e-04 7.56781839e-04 7.57080386e-04 7.57886039e-04
      7.57981907e-04 7.58135342e-04 7.59826566e-04 7.59925169e-04
      7.60306255e-04 7.60438852e-04 7.60367257e-04 7.60533148e-04
      7.61497067e-04 7.62704120e-04 7.61915348e-04 7.62559997e-04
      7.63031596e-04 7.63189164e-04 7.63484335e-04 7.64596276e-04
      7.64856173e-04 7.64524564e-04 7.64884695e-04 7.65072531e-04
      7.65306118e-04 7.66241807e-04 7.65838719e-04 7.66341749e-04
      7.66438141e-04 7.66127079e-04 7.67550082e-04 7.67595018e-04
      7.67455203e-04 7.67797988e-04 7.66977028e-04 7.68057245e-04
      7.68816622e-04 7.69284146e-04 7.69636652e-04 7.69577047e-04
      7.69507489e-04 7.68854865e-04 7.69122620e-04 7.68839906e-04
      7.69106206e-04 7.69603066e-04 7.70041661e-04 7.70069077e-04
      7.69892591e-04 7.69293809e-04 7.69469014e-04 7.69980543e-04
      7.70230312e-04 7.70429499e-04 7.71144463e-04 7.71668041e-04
      7.71253603e-04 7.72507687e-04 7.73379754e-04 7.74707703e-04
      7.75432389e-04 7.75239896e-04 7.74773071e-04 7.75825698e-04
      7.74787331e-04 7.75641936e-04 7.75814347e-04 7.75694323e-04
      7.75860390e-04 7.76227214e-04 7.77173671e-04 7.76944507e-04
      7.77998124e-04 7.78173562e-04 7.78101909e-04 7.78420712e-04
      7.78274087e-04 7.77463196e-04 7.77365582e-04 7.77203182e-04
      7.75937224e-04 7.76140078e-04 7.76763249e-04 7.77528039e-04
      7.77792535e-04 7.78566173e-04 7.78881658e-04 7.79032533e-04
      7.79570895e-04 7.79579976e-04 7.79823633e-04 7.79781025e-04
      7.80098722e-04 7.80501636e-04 7.80471193e-04 7.80143251e-04
      7.80654140e-04 7.81397917e-04 7.81698734e-04 7.83165277e-04
      7.83959113e-04 7.84296368e-04 7.84262025e-04 7.83769705e-04
      7.84266740e-04 7.83899159e-04 7.83803524e-04 7.83882395e-04
      7.84238335e-04 7.83931580e-04 7.83827039e-04 7.84375938e-04
      7.84411386e-04 7.83726980e-04 7.83433672e-04 7.83893163e-04
      7.84942880e-04 7.85068958e-04 7.85046665e-04 7.85658194e-04
      7.86349527e-04 7.86449586e-04 7.86740333e-04 7.87123456e-04
      7.86673743e-04 7.87039695e-04 7.86815130e-04 7.86645920e-04
      7.87372235e-04 7.86643941e-04 7.86639750e-04 7.86728226e-04
      7.86092074e-04 7.85759941e-04 7.86703255e-04 7.85846903e-04
      7.86159304e-04 7.85144395e-04 7.85996090e-04 7.84791831e-04
      7.84509000e-04 7.84029835e-04 7.84214528e-04 7.85679673e-04
      7.85413955e-04 7.86615943e-04 7.86897494e-04 7.87334749e-04
      7.87487719e-04 7.87447090e-04 7.87526020e-04 7.88621081e-04
      7.88969570e-04 7.89671380e-04 7.89755897e-04 7.91559054e-04
      7.91075348e-04 7.90946593e-04 7.90569931e-04 7.90941238e-04
      7.91182974e-04 7.91181112e-04 7.92271516e-04 7.92144390e-04
      7.92453589e-04 7.92296894e-04 7.93399173e-04 7.93399173e-04
      7.92807899e-04 7.93519313e-04 7.93938176e-04 7.95338943e-04
      7.94547843e-04 7.95169617e-04 7.94995925e-04 7.95720669e-04
      7.95867702e-04 7.95832137e-04 7.96326203e-04 7.95651402e-04
      7.96418055e-04 7.96024629e-04 7.96660373e-04 7.97484186e-04
      7.98035529e-04 7.97075918e-04 7.97197281e-04 7.97222659e-04
      7.96404376e-04 7.97209970e-04 7.97928253e-04 7.98035704e-04
      7.97407818e-04 7.97620567e-04 7.97225803e-04 7.96048378e-04
      7.96414097e-04 7.97252171e-04 7.97086686e-04 7.97625107e-04
      7.97774526e-04 7.97773653e-04 7.98320805e-04 7.97230285e-04
      7.96888722e-04 7.97029061e-04 7.98105961e-04 7.98431516e-04
      7.98466790e-04 7.98924593e-04 7.97754095e-04 8.01197661e-04
      8.01348884e-04 8.02675262e-04 8.01325776e-04 8.02444119e-04
      8.03212693e-04 8.03733070e-04 8.02130206e-04 8.02091556e-04
      8.00869660e-04 8.00816168e-04 8.01173854e-04 8.01303016e-04
      8.00943060e-04 8.01352318e-04 8.01942486e-04 8.01517162e-04
      8.01190734e-04 8.02599883e-04 8.02570430e-04 8.03067349e-04
      8.03034985e-04 8.03215313e-04 8.02822295e-04 8.02396622e-04
      8.02200462e-04 8.02451395e-04 8.02816998e-04 8.02728464e-04
      8.03058560e-04 8.01565591e-04 8.01892078e-04 8.01746559e-04
      8.01984512e-04 8.02120718e-04 8.02820781e-04 8.02594703e-04
      8.03188421e-04 8.03521660e-04 8.02818744e-04 8.02904251e-04
      8.02659197e-04 8.03492614e-04 8.04087264e-04 8.05074349e-04
      8.04444426e-04 8.05456366e-04 8.05543561e-04 8.05215735e-04
      8.05142336e-04 8.06189142e-04 8.05702177e-04 8.06632917e-04
      8.05973250e-04 8.06973840e-04 8.07230943e-04 8.07461678e-04
      8.06838565e-04 8.06349679e-04 8.06074182e-04 8.04944721e-04
      8.04907293e-04 8.05154152e-04 8.06546595e-04 8.06770404e-04
      8.06027674e-04 8.06587224e-04 8.07225530e-04 8.08582117e-04
      8.09676771e-04 8.09732708e-04 8.09249294e-04 8.09985679e-04
      8.09879217e-04 8.09494231e-04 8.09278339e-04 8.09312041e-04
      8.08627054e-04 8.08990560e-04 8.09692603e-04 8.09190853e-04
      8.11413047e-04 8.10474798e-04 8.11997859e-04 8.11999140e-04
      8.11948907e-04 8.12059210e-04 8.11995182e-04 8.10496102e-04
      8.12167535e-04 8.12888145e-04 8.13489198e-04 8.13495659e-04
      8.14047118e-04 8.15064006e-04 8.14538391e-04 8.15048465e-04
      8.15039326e-04 8.14654748e-04 8.14441068e-04 8.12992686e-04
      8.12619925e-04 8.13053921e-04 8.12296115e-04 8.12340470e-04
      8.12484941e-04 8.12861079e-04 8.12021259e-04 8.12875107e-04
      8.13007238e-04 8.13728722e-04 8.10991973e-04 8.10939469e-04
      8.11063859e-04 8.11348960e-04 8.10555648e-04 8.10574158e-04
      8.10848607e-04 8.11064208e-04 8.10369093e-04 8.10973404e-04
      8.11052800e-04 8.09637597e-04 8.09403078e-04 8.09238583e-04
      8.09540739e-04 8.08052660e-04 8.08064011e-04 8.08343408e-04
      8.08826589e-04 8.07441596e-04 8.07356555e-04 8.07959586e-04
      8.07845092e-04 8.06821336e-04 8.06947472e-04 8.07052944e-04
      8.08400277e-04 8.08097771e-04 8.08348414e-04 8.07740318e-04
      8.06356256e-04 8.06435710e-04 8.05314456e-04 8.05931108e-04
      8.04558047e-04 8.06039374e-04 8.06383439e-04 8.06714874e-04
      8.04948504e-04 8.05530581e-04 8.06541240e-04 8.06715805e-04
      8.05287214e-04 8.05367308e-04 8.05785006e-04 8.04590818e-04
      8.05141171e-04 8.05808813e-04 8.06597644e-04 8.06832919e-04
      8.06505792e-04 8.06900614e-04 8.03634874e-04 8.02175608e-04
      8.01774790e-04 8.01785442e-04 8.01525079e-04 8.00814771e-04
      8.00071401e-04 7.99209520e-04 7.99305446e-04 8.00274371e-04
      7.99419184e-04 7.99678499e-04 7.99880188e-04 7.99812202e-04
      7.99963309e-04 8.00149923e-04 8.00448644e-04 8.00288224e-04
      8.00424197e-04 7.99827860e-04 7.99753063e-04 8.00524547e-04
      7.99393165e-04 7.98853987e-04 7.99382047e-04 7.98993337e-04
      7.98110443e-04 7.98228837e-04 7.97228946e-04 7.96780165e-04
      7.95543718e-04 7.95088708e-04 7.94894644e-04 7.93708547e-04
      7.91672093e-04 7.91083032e-04 7.91083381e-04 7.91814527e-04
      7.91564700e-04 7.90383900e-04 7.89569924e-04 7.89163518e-04
      7.89137790e-04 7.88946229e-04 7.88287784e-04 7.87271187e-04
      7.86821998e-04 7.86097953e-04 7.85869139e-04 7.86046032e-04
      7.85624841e-04 7.84109638e-04 7.83898577e-04 7.84951902e-04
      7.85094046e-04 7.84749573e-04 7.84385484e-04 7.84051896e-04
      7.82806601e-04 7.83496187e-04 7.83486175e-04 7.83815514e-04
      7.84119824e-04 7.84837175e-04 7.83401367e-04 7.82353629e-04
      7.78023095e-04 7.78085552e-04 7.77954003e-04 7.76187109e-04
      7.76407483e-04 7.73793668e-04 7.76792876e-04 7.76154455e-04
      7.75729830e-04 7.75859226e-04 7.75313936e-04 7.75111897e-04
      7.75450142e-04 7.75371969e-04 7.77868496e-04 7.77780893e-04
      7.77715410e-04 7.77836423e-04 7.79280497e-04 7.76876695e-04
      7.76813889e-04 7.75975059e-04 7.74662301e-04 7.74455257e-04
      7.74570100e-04 7.73717125e-04 7.73996755e-04 7.78379501e-04
      7.77861453e-04 7.77898065e-04 7.77599169e-04 7.75590015e-04
      7.75086635e-04 7.74557702e-04 7.74054672e-04 7.74261425e-04
      7.72883592e-04 7.72815954e-04 7.72263738e-04 7.72765721e-04
      7.72267929e-04 7.71461288e-04 7.71590159e-04 7.70182814e-04
      7.69314298e-04 7.73790525e-04 7.74472952e-04 7.75166787e-04
      7.75382796e-04 7.76542642e-04 7.76259229e-04 7.76508416e-04
      7.76624656e-04 7.77077745e-04 7.79392081e-04 7.79460825e-04
      7.79628230e-04 7.79296213e-04 7.77637411e-04 7.78119371e-04
      7.78306334e-04 7.75427965e-04 7.74003391e-04 7.73228356e-04
      7.73928827e-04 7.73542444e-04 7.74166081e-04 7.73594773e-04
      7.72934989e-04 7.71742547e-04 7.71418214e-04 7.69965700e-04
      7.69095321e-04 7.67372723e-04 7.68458762e-04 7.67199264e-04
      7.65425852e-04 7.66079582e-04 7.65816134e-04 7.66193029e-04
      7.65887147e-04 7.66005309e-04 7.66447862e-04 7.66156474e-04
      7.66815152e-04 7.67121033e-04 7.67440069e-04 7.67751539e-04
      7.68426748e-04 7.67865218e-04 7.67247635e-04 7.67866033e-04
      7.66485697e-04 7.67599558e-04 7.66486453e-04 7.65905657e-04
      7.66231504e-04 7.65943667e-04 7.65688135e-04 7.66513520e-04
      7.65387667e-04 7.65707518e-04 7.65713863e-04 7.65663222e-04
      7.65261997e-04 7.64599419e-04 7.66074751e-04 7.64854893e-04
      7.63457560e-04 7.63112213e-04 7.62560812e-04 7.61941366e-04
      7.61645555e-04 7.61378149e-04 7.60960684e-04 7.59852643e-04
      7.59331626e-04 7.59990653e-04 7.58421083e-04 7.57994363e-04
      7.56063906e-04 7.55908201e-04 7.56974332e-04 7.57178117e-04
      7.57396745e-04 7.57534057e-04 7.57075788e-04 7.58203736e-04
      7.58125214e-04 7.58679351e-04 7.56714260e-04 7.57560483e-04
      7.58486916e-04 7.55882356e-04 7.55818968e-04 7.55134679e-04
      7.49467581e-04 7.49666069e-04 7.49687722e-04 7.51366606e-04
      7.50667765e-04 7.49999715e-04 7.50044594e-04 7.49659608e-04
      7.48847728e-04 7.48811930e-04 7.49381899e-04 7.48322636e-04
      7.49565195e-04 7.48806342e-04 7.47126294e-04 7.46601436e-04
      7.46481994e-04 7.46980892e-04 7.46724487e-04 7.45223893e-04
      7.44817313e-04 7.43087265e-04 7.42847507e-04 7.43567129e-04
      7.42328353e-04 7.41802098e-04 7.41138181e-04 7.41528405e-04
      7.40442483e-04 7.40133808e-04 7.40714255e-04 7.40915129e-04
      7.40066112e-04 7.39320007e-04 7.38659117e-04 7.39109004e-04
      7.37487106e-04 7.36986869e-04 7.37029535e-04 7.36318354e-04
      7.34476256e-04 7.34996691e-04 7.35141512e-04 7.33629218e-04
      7.35386973e-04 7.36061076e-04 7.33891444e-04 7.33995170e-04
      7.32548709e-04 7.30170053e-04 7.30353058e-04 7.29785534e-04
      7.29166262e-04 7.27257575e-04 7.27504550e-04 7.27389124e-04
      7.25921127e-04 7.26954371e-04 7.27742154e-04 7.27245177e-04
      7.27563340e-04 7.26828934e-04 7.26703729e-04 7.26905128e-04
      7.27543666e-04 7.27337843e-04 7.27629755e-04 7.27943727e-04
      7.27693259e-04 7.26229453e-04 7.25316117e-04 7.25596561e-04
      7.23219069e-04 7.23575475e-04 7.23840494e-04 7.23450969e-04
      7.24387821e-04 7.22834084e-04 7.23245030e-04 7.24894810e-04
      7.24806683e-04 7.25405233e-04 7.21713528e-04 7.20045529e-04
      7.17945979e-04 7.18454306e-04 7.18716707e-04 7.18806463e-04
      7.17295683e-04 7.17994873e-04 7.18557276e-04 7.19194708e-04
      7.19816249e-04 7.19375152e-04 7.20732496e-04 7.20032840e-04
      7.20157521e-04 7.18847674e-04 7.19907752e-04 7.20002281e-04
      7.19589822e-04 7.19387783e-04 7.17818795e-04 7.19242205e-04
      7.19755539e-04 7.18037656e-04 7.15848641e-04 7.13558868e-04
      7.14131864e-04 7.13437970e-04 7.12413981e-04 7.13716436e-04
      7.12219102e-04 7.10819324e-04 7.11489876e-04 7.11131026e-04
      7.11014727e-04 7.09708605e-04 7.12122535e-04 7.11887376e-04
      7.10618508e-04 7.13015790e-04 7.12169218e-04 7.14051479e-04
      7.12912239e-04 7.12458161e-04 7.10878463e-04 7.10522116e-04
      7.10897439e-04 7.10786087e-04 7.08384323e-04 7.09185551e-04
      7.07290368e-04 7.06561783e-04 7.05965969e-04 7.05717073e-04
      7.07038445e-04 7.05973885e-04 7.05395592e-04 7.05180457e-04
      7.03257567e-04 7.02707737e-04 7.00863486e-04 7.00216740e-04
      6.97866897e-04 6.97060896e-04 6.94427872e-04 6.94235147e-04
      6.91767433e-04 6.93429494e-04 6.94902323e-04 6.95878873e-04
      6.95332652e-04 6.93866285e-04 6.94150513e-04 6.95677067e-04
      6.94468035e-04 6.93939917e-04 6.94456452e-04 6.95185852e-04
      6.94343995e-04 6.94578455e-04 6.95171475e-04 6.94038055e-04
      6.93385373e-04 6.93331589e-04 6.93261216e-04 6.93124777e-04
      6.88622822e-04 6.86667277e-04 6.86491723e-04 6.86090847e-04
      6.83986756e-04 6.80739700e-04 6.81876438e-04 6.81437028e-04
      6.81964331e-04 6.81120669e-04 6.81876845e-04 6.82982733e-04
      6.85625128e-04 6.85488514e-04 6.85655861e-04 6.82541169e-04
      6.80608966e-04 6.82268699e-04 6.83834020e-04 6.83644030e-04
      6.78521581e-04 6.78440789e-04 6.78049924e-04 6.79347489e-04
      6.75227842e-04 6.74805546e-04 6.75726915e-04 6.75145246e-04
      6.71815535e-04 6.67329878e-04 6.66305597e-04 6.64746738e-04
      6.74939773e-04 6.73431554e-04 6.71396963e-04 6.70080539e-04
      6.67280168e-04 6.68283785e-04 6.69934554e-04 6.69283734e-04
      6.71815826e-04 6.70109992e-04 6.67078304e-04 6.68680936e-04
      6.67484244e-04 6.66353328e-04 6.68123772e-04 6.67044893e-04
      6.64005289e-04 6.67262822e-04 6.66830339e-04 6.66513923e-04
      6.68495777e-04 6.68924127e-04 6.70124311e-04 6.69454166e-04
      6.72460883e-04 6.71963266e-04 6.67807064e-04 6.64919440e-04
      6.64499472e-04 6.59725745e-04 6.59082667e-04 6.58362405e-04
      6.54989330e-04 6.53849158e-04 6.51842798e-04 6.45490072e-04
      6.45272841e-04 6.49337308e-04 6.47758308e-04 6.45394030e-04
      6.48489804e-04 6.48155343e-04 6.47726294e-04 6.39104052e-04
      6.37429534e-04 6.35289645e-04 6.36700948e-04 6.35912293e-04
      6.38023019e-04 6.31400617e-04 6.32676820e-04 6.34071184e-04
      6.32734213e-04 6.30341063e-04 6.32137759e-04 6.45537453e-04
      6.47722743e-04 6.43496111e-04 6.40290673e-04 6.36476965e-04
      6.32726937e-04 6.34614553e-04 6.36854500e-04 6.34447439e-04
      6.33366348e-04 6.35077246e-04 6.35323348e-04 6.37445191e-04
      6.35809731e-04 6.37618825e-04 6.37213874e-04 6.38047233e-04
      6.39886421e-04 6.39089209e-04 6.43927779e-04 6.35643664e-04
      6.33182877e-04 6.30829833e-04 6.35341275e-04 6.32548588e-04
      6.28299545e-04 6.30252936e-04 6.25720946e-04 6.22029474e-04
      6.18740683e-04 6.09555573e-04 6.07810274e-04 6.04873698e-04
      6.00729545e-04 5.92570112e-04 5.90674230e-04 5.88267751e-04
      5.84325579e-04 5.82167530e-04 5.82645647e-04 5.81772765e-04
      5.77621278e-04 5.77014289e-04 5.74452628e-04 5.77807252e-04
      5.76212420e-04 5.76717895e-04 5.70311735e-04 5.71056735e-04
      5.67664625e-04 5.69862896e-04 5.69005671e-04 5.70407545e-04
      5.73214085e-04 5.68752235e-04 5.64713846e-04 5.64567512e-04
      5.59686450e-04 5.49581076e-04 5.51251695e-04 5.52012061e-04
      5.48073091e-04 5.42328868e-04 5.41628571e-04 5.41352143e-04
      5.48969605e-04 5.47128264e-04 5.46100026e-04 5.48206270e-04
      5.46121970e-04 5.39447472e-04 5.41418849e-04 5.40388864e-04
      5.42042719e-04 5.42312686e-04 5.35436324e-04 5.36444539e-04
      5.37136570e-04 5.35890867e-04 5.39794855e-04 5.39828732e-04
      5.40353183e-04 5.42953494e-04 5.30125282e-04 5.28374221e-04
      5.29005425e-04 5.30330057e-04 5.25409880e-04 5.26284508e-04
      5.31207013e-04 5.30296646e-04 5.30885474e-04 5.30176214e-04
      5.20348141e-04 5.16357191e-04 5.17124077e-04 5.16424188e-04
      5.15745080e-04 5.15088846e-04 5.14239829e-04 5.08748577e-04
      5.01712901e-04 5.02126757e-04 5.02104871e-04 5.03675721e-04
      5.04921074e-04 5.04760072e-04 5.05861419e-04 5.04619849e-04
      5.02048642e-04 4.94965177e-04 4.96951281e-04 4.94750973e-04
      4.96114953e-04 4.90969222e-04 4.85173019e-04 4.89308150e-04
      4.90378297e-04 4.99537389e-04 4.95488988e-04 4.86511388e-04
      4.87893849e-04 4.80150105e-04 4.82111122e-04 4.77731228e-04
      4.63425793e-04 4.65147459e-04 4.66650381e-04 4.63379431e-04
      4.67681733e-04 4.64277633e-04 4.62408556e-04 4.69310791e-04
      4.68090759e-04 4.70052095e-04 4.69136023e-04 4.72960441e-04
      4.61041258e-04 4.66469588e-04 4.65981109e-04 4.65008343e-04
      4.66574536e-04 4.55545349e-04 4.54868772e-04 4.51459171e-04
      4.52417997e-04 4.50520427e-04 4.47750237e-04 4.47835831e-04
      4.42235847e-04 4.42977849e-04 4.45980550e-04 4.46121325e-04
      4.48234583e-04 4.46902384e-04 4.47258004e-04 4.38726071e-04
      4.41299286e-04 4.28585568e-04 4.27702616e-04 4.22316836e-04
      4.22843354e-04 4.19272925e-04 4.18120879e-04 4.21755540e-04
      4.14614275e-04 4.18842246e-04 4.18103184e-04 4.25357517e-04
      4.23769088e-04 4.20252531e-04 4.19217948e-04 4.21191537e-04
      4.20077413e-04 3.99240933e-04 3.99400073e-04 3.92825546e-04
      3.90235306e-04 3.89364955e-04 3.91450769e-04 3.88030458e-04
      3.86720902e-04 3.87977954e-04 3.84093320e-04 3.82282567e-04
      3.80939920e-04 3.66545864e-04 3.59022582e-04 3.55420983e-04
      3.47021094e-04 3.40803585e-04 3.42164101e-04 3.42897110e-04
      3.41781299e-04 3.38753744e-04 3.38904443e-04 3.33858567e-04
      3.26633890e-04 3.31875024e-04 2.84755428e-04 2.86503870e-04
      2.89731863e-04 2.86026800e-04 2.81879766e-04 2.72527628e-04
      2.56631232e-04 2.55440071e-04 2.57784646e-04 2.59008986e-04
      2.46977463e-04 2.44967145e-04 2.16622400e-04 2.15666529e-04
      2.11067236e-04 2.09348378e-04 1.98311056e-04 1.99174727e-04
      2.06795536e-04 2.04504482e-04 2.05022399e-04 2.06930607e-04
      2.04224591e-04 1.65478239e-04 1.63407371e-04 1.48274106e-04
      1.32279820e-04 1.29373700e-04 1.31584005e-04 1.31927271e-04
      1.09744156e-04 1.08582106e-04 1.13059461e-04 1.13068709e-04
      1.14230985e-04 8.99809238e-05 8.91412346e-05 8.40127177e-05
      9.04948538e-05 8.29553392e-05 9.32228941e-05 8.54838509e-05
      8.47123520e-05 9.56495351e-05 1.01797537e-04 9.71905320e-05
      9.87294407e-05 1.02491125e-04 9.34287527e-05 9.43844279e-05
      8.01449860e-05 6.95318522e-05 5.97814906e-05 3.93413720e-05
      -6.64817198e-05 -3.22033666e-05 9.45416389e-07 -3.85852854e-06
      -1.08500799e-05 3.26285808e-05 4.60981028e-05 3.89995694e-05
      3.78345103e-05 7.10633394e-05 7.39952229e-05 9.48646702e-05
      1.18397831e-04 1.11094647e-04 1.15852199e-04 1.18697149e-04
      1.11274363e-04 1.51674089e-04 1.52006440e-04 1.52094581e-04
      1.51574772e-04 1.57323957e-04 1.60054886e-04 1.64830170e-04
      1.62930606e-04 1.68753832e-04 1.83141965e-04 2.00355018e-04
      2.05675926e-04 2.12550862e-04 2.15539898e-04 2.20321774e-04
      2.24338131e-04 2.25234486e-04 2.32078251e-04 2.32693434e-04
      2.33706218e-04 2.32061095e-04 2.43031187e-04 2.45462346e-04
      2.47410266e-04 2.49222910e-04 2.55566149e-04 2.55223422e-04
      2.58805667e-04 2.63232476e-04 2.67083611e-04 2.67917232e-04
      2.68777367e-04 2.70831224e-04 2.73668004e-04 2.74441933e-04
      2.77099374e-04 2.80650129e-04 2.85843911e-04 2.83887173e-04
      2.83152447e-04 2.86821276e-04 2.85266171e-04 2.85821297e-04
      2.86402210e-04 2.89246353e-04 2.90071242e-04 2.90642027e-04
      2.95203790e-04 2.95235775e-04 2.95582897e-04 2.96759041e-04
      3.00730055e-04 3.01563123e-04 3.02099565e-04 3.08541290e-04
      3.07493610e-04 3.08198709e-04 3.08035931e-04 3.08367278e-04
      3.13090335e-04 3.11345386e-04 3.08831892e-04 3.08725168e-04
      3.09479539e-04 3.07819311e-04 3.11832468e-04 3.13723081e-04
      3.13542841e-04 3.14616249e-04 3.15325247e-04 3.16681428e-04
      3.20117775e-04 3.20508698e-04 3.22085310e-04 3.23633954e-04
      3.24058725e-04 3.27001122e-04 3.26721463e-04 3.27233080e-04
      3.27294489e-04 3.29701550e-04 3.30264855e-04 3.31791292e-04
      3.32596799e-04 3.33112053e-04 3.33958393e-04 3.36129277e-04
      3.38093756e-04 3.39124352e-04 3.39408492e-04 3.39009654e-04
      3.41284584e-04 3.42312240e-04 3.41892010e-04 3.41196428e-04
      3.40624858e-04 3.39888851e-04 3.38428421e-04 3.38849175e-04
      3.38873855e-04 3.38992802e-04 3.44120373e-04 3.46822140e-04
      3.47422785e-04 3.48616479e-04 3.49109207e-04 3.49026872e-04
      3.49604001e-04 3.50142596e-04 3.50062299e-04 3.50620860e-04
      3.50823393e-04 3.52790812e-04 3.53999407e-04 3.54956894e-04
      3.54956923e-04 3.55302735e-04 3.55114316e-04 3.60411068e-04
      3.60989477e-04 3.62700608e-04 3.65266751e-04 3.65906395e-04
      3.66075372e-04 3.70626105e-04 3.65520042e-04 3.65967862e-04
      3.66255874e-04 3.66619672e-04 3.67228844e-04 3.70278518e-04
      3.72302282e-04 3.73410818e-04 3.73408460e-04 3.73643183e-04
      3.73481103e-04 3.74807976e-04 3.75593285e-04 3.77434597e-04
      3.78277036e-04 3.78231693e-04 3.80558340e-04 3.80290468e-04
      3.83177685e-04 3.82266007e-04 3.82238068e-04 3.84262414e-04
      3.84840474e-04 3.85642663e-04 3.87394510e-04 3.87477921e-04
      3.88859218e-04 3.90043075e-04 3.89996712e-04 3.89996771e-04
      3.91862122e-04 3.92723392e-04 3.95131909e-04 3.94711591e-04
      3.96282587e-04 3.98466917e-04 3.98554374e-04 3.98841832e-04
      4.02021484e-04 4.02178499e-04 4.03358776e-04 4.01609781e-04
      4.01192781e-04 4.01930563e-04 4.03293641e-04 4.03173763e-04
      4.03261307e-04 4.02658334e-04 4.05113184e-04 4.05703177e-04
      4.08490712e-04 4.09103377e-04 4.09641536e-04 4.10909270e-04
      4.11113462e-04 4.11664514e-04 4.12745954e-04 4.13499336e-04
      4.14023350e-04 4.14868322e-04 4.15152259e-04 4.15948714e-04
      4.17144271e-04 4.19083139e-04 4.20512515e-04 4.20905213e-04
      4.22929734e-04 4.23308142e-04 4.25842329e-04 4.26214159e-04
      4.27878113e-04 4.28019150e-04 4.29693318e-04 4.29261825e-04
      4.29541222e-04 4.31621971e-04 4.31789929e-04 4.31892055e-04
      4.32691770e-04 4.32745292e-04 4.35053807e-04 4.35126189e-04
      4.36453993e-04 4.36641218e-04 4.36104980e-04 4.36514441e-04
      4.36206145e-04 4.38748539e-04 4.39451920e-04 4.42201650e-04
      4.42606077e-04 4.45135520e-04 4.45502374e-04 4.46256454e-04
      4.46841266e-04 4.47617669e-04 4.47552622e-04 4.48550592e-04
      4.48872888e-04 4.50929627e-04 4.50996507e-04 4.51645377e-04
      4.52481356e-04 4.52997192e-04 4.53129120e-04 4.54160036e-04
      4.54142515e-04 4.55451751e-04 4.56492940e-04 4.59448725e-04
      4.62486263e-04 4.63868346e-04 4.64131823e-04 4.64176119e-04
      4.64918441e-04 4.65180870e-04 4.66147583e-04 4.66933183e-04
      4.66924015e-04 4.67988284e-04 4.69248072e-04 4.73120366e-04
      4.74518834e-04 4.75997716e-04 4.76612098e-04 4.76997491e-04
      4.78190195e-04 4.80028102e-04 4.83479380e-04 4.83993528e-04
      4.84556629e-04 4.85665165e-04 4.86416888e-04 4.87506768e-04
      4.88138990e-04 4.89770260e-04 4.90570383e-04 4.91741521e-04
      4.96612978e-04 4.96536435e-04 4.99257119e-04 4.99284419e-04
      4.98565321e-04 4.98743495e-04 4.99269867e-04 4.99852642e-04
      5.02709066e-04 5.05446049e-04 5.05683420e-04 5.05459495e-04
      5.05547388e-04 5.05992793e-04 5.06082899e-04 5.06570039e-04
      5.07142220e-04 5.07490477e-04 5.07730118e-04 5.07683551e-04
      5.07419812e-04 5.09401900e-04 5.10042126e-04 5.10705169e-04
      5.10734506e-04 5.11081831e-04 5.11146209e-04 5.12226659e-04
      5.14624291e-04 5.15297055e-04 5.15859399e-04 5.16803644e-04
      5.17012086e-04 5.17035660e-04 5.18226938e-04 5.19421941e-04
      5.19705703e-04 5.21648908e-04 5.21199952e-04 5.22538496e-04
      5.22708171e-04 5.24508301e-04 5.25773212e-04 5.26293996e-04
      5.26503078e-04 5.26783580e-04 5.27654483e-04 5.27758559e-04
      5.28148958e-04 5.28235221e-04 5.28560369e-04 5.28785109e-04
      5.28170785e-04 5.28005941e-04 5.28714678e-04 5.30317018e-04
      5.31223835e-04 5.33149345e-04 5.33512270e-04 5.32922451e-04
      5.33281185e-04 5.33263781e-04 5.34119841e-04 5.35644591e-04
      5.34914259e-04 5.34709019e-04 5.35947212e-04 5.36235690e-04
      5.38022141e-04 5.39125234e-04 5.38731460e-04 5.39448229e-04
      5.40370995e-04 5.40370995e-04 5.40346664e-04 5.40846027e-04
      5.40535897e-04 5.41093992e-04 5.41452086e-04 5.41926245e-04
      5.42257796e-04 5.43286093e-04 5.43327886e-04 5.43605536e-04
      5.43652626e-04 5.43879345e-04 5.43293485e-04 5.44204668e-04
      5.44225157e-04 5.44204260e-04 5.44653158e-04 5.45806717e-04
      5.45888906e-04 5.47148171e-04 5.46735537e-04 5.47302014e-04
      5.47599397e-04 5.48695913e-04 5.48366632e-04 5.48949989e-04
      5.49310644e-04 5.51589590e-04 5.52144251e-04 5.54014929e-04
      5.54101833e-04 5.54005499e-04 5.54740021e-04 5.57258085e-04
      5.57958323e-04 5.59782842e-04 5.60240645e-04 5.61196648e-04
      5.60904911e-04 5.61407942e-04 5.63439855e-04 5.63548529e-04
      5.63295151e-04 5.64335438e-04 5.65978175e-04 5.66921663e-04
      5.67926210e-04 5.67967829e-04 5.68728370e-04 5.69366966e-04
      5.69499796e-04 5.69714175e-04 5.68937394e-04 5.69516851e-04
      5.70741366e-04 5.71477693e-04 5.71108540e-04 5.71277167e-04
      5.71963203e-04 5.72682591e-04 5.74525911e-04 5.75540296e-04
      5.75489015e-04 5.75473066e-04 5.77183266e-04 5.77565632e-04
      5.78176521e-04 5.79464482e-04 5.80346852e-04 5.80918568e-04
      5.80903841e-04 5.80202730e-04 5.81216067e-04 5.81273460e-04
      5.81478525e-04 5.80705237e-04 5.80880034e-04 5.81274391e-04
      5.82140754e-04 5.83934656e-04 5.84298046e-04 5.84568421e-04
      5.85309230e-04 5.85833914e-04 5.85621281e-04 5.86667564e-04
      5.87384042e-04 5.87769027e-04 5.88060706e-04 5.88159019e-04
      5.88580500e-04 5.90502052e-04 5.90879121e-04 5.91371441e-04
      5.92448516e-04 5.92722790e-04 5.92043332e-04 5.92226919e-04
      5.92606084e-04 5.93850389e-04 5.94226178e-04 5.94778568e-04
      5.96258324e-04 5.96348022e-04 5.95387013e-04 5.97504899e-04
      5.98292914e-04 5.99382794e-04 5.99776453e-04 6.00207190e-04
      6.01213134e-04 6.01795851e-04 6.01916341e-04 6.03661698e-04
      6.02967630e-04 6.03064022e-04 6.03195163e-04 6.02372456e-04
      6.02307671e-04 6.02332409e-04 6.02746615e-04 6.02553191e-04
      6.04361470e-04 6.04417757e-04 6.05248380e-04 6.05876034e-04
      6.07310678e-04 6.07634254e-04 6.08024828e-04 6.06929651e-04
      6.07164460e-04 6.07498863e-04 6.08712202e-04 6.08998060e-04
      6.09436829e-04 6.09510404e-04 6.09027396e-04 6.09965471e-04
      6.10327930e-04 6.10784045e-04 6.11758092e-04 6.11208787e-04
      6.11340685e-04 6.11918862e-04 6.12145581e-04 6.12145581e-04
      6.11033698e-04 6.12240052e-04 6.12213393e-04 6.13307930e-04
      6.12614967e-04 6.12713862e-04 6.13114447e-04 6.13333017e-04
      6.14072022e-04 6.14221033e-04 6.14379183e-04 6.14605611e-04
      6.13832613e-04 6.14156364e-04 6.15038734e-04 6.15815166e-04
      6.15603058e-04 6.15985191e-04 6.16268546e-04 6.16952137e-04
      6.17700745e-04 6.16473495e-04 6.19066996e-04 6.20141567e-04
      6.21323590e-04 6.21472427e-04 6.21175801e-04 6.20958221e-04
      6.21193321e-04 6.21964282e-04 6.21880114e-04 6.22470281e-04
      6.22468942e-04 6.22596301e-04 6.22210733e-04 6.23902422e-04
      6.24171458e-04 6.25047542e-04 6.24526758e-04 6.25594635e-04
      6.25324144e-04 6.25685323e-04 6.26086083e-04 6.26473222e-04
      6.26626541e-04 6.26775203e-04 6.26949884e-04 6.28337439e-04
      6.28589361e-04 6.28622191e-04 6.29429356e-04 6.30680879e-04
      6.30976516e-04 6.31064817e-04 6.30649040e-04 6.30748342e-04
      6.31991425e-04 6.32375246e-04 6.33294927e-04 6.34107855e-04
      6.33451622e-04 6.34200755e-04 6.34346856e-04 6.35708042e-04
      6.36343379e-04 6.36780402e-04 6.36989134e-04 6.35935576e-04
      6.35948323e-04 6.35960780e-04 6.36655721e-04 6.36893732e-04
      6.37220161e-04 6.36827608e-04 6.37813995e-04 6.38260040e-04
      6.39203587e-04 6.39204751e-04 6.41987543e-04 6.41483814e-04
      6.42259081e-04 6.42803439e-04 6.42814208e-04 6.44045300e-04
      6.44139946e-04 6.42733299e-04 6.43025851e-04 6.43484760e-04
      6.43794658e-04 6.44035812e-04 6.45984779e-04 6.46005617e-04
      6.44817308e-04 6.45984488e-04 6.46821107e-04 6.48121000e-04
      6.48389047e-04 6.47620182e-04 6.48255984e-04 6.49083173e-04
      6.50103204e-04 6.50048780e-04 6.52257993e-04 6.52859570e-04
      6.53260213e-04 6.53654686e-04 6.53574185e-04 6.53205556e-04
      6.53411495e-04 6.53797004e-04 6.54009986e-04 6.53312774e-04
      6.53885887e-04 6.54258416e-04 6.55195501e-04 6.55655051e-04
      6.55661453e-04 6.56163553e-04 6.56348420e-04 6.56575896e-04
      6.56524033e-04 6.58673991e-04 6.59445475e-04 6.58684643e-04
      6.60423131e-04 6.60861144e-04 6.60640188e-04 6.59893965e-04
      6.60130288e-04 6.61954284e-04 6.61604339e-04 6.61780767e-04
      6.61823025e-04 6.62342587e-04 6.63191197e-04 6.63671526e-04
      6.64227933e-04 6.64031832e-04 6.64814143e-04 6.64823048e-04
      6.64795807e-04 6.67794782e-04 6.67502522e-04 6.67876040e-04
      6.68594555e-04 6.69246074e-04 6.68716442e-04 6.68449153e-04
      6.68675522e-04 6.69780886e-04 6.69465691e-04 6.71459653e-04
      6.72127702e-04 6.72466063e-04 6.72835449e-04 6.74630050e-04
      6.74636220e-04 6.74856128e-04 6.75284886e-04 6.75212825e-04
      6.75433490e-04 6.75045769e-04 6.75235700e-04 6.75127318e-04
      6.75988442e-04 6.77147007e-04 6.77189440e-04 6.77963952e-04
      6.79541088e-04 6.79923513e-04 6.80048193e-04 6.79474790e-04
      6.79771299e-04 6.80169498e-04 6.80553727e-04 6.81022240e-04
      6.81850594e-04 6.82206708e-04 6.82146347e-04 6.82198501e-04
      6.82264275e-04 6.81898731e-04 6.82280050e-04 6.81763922e-04
      6.81801932e-04 6.82489946e-04 6.83418242e-04 6.83302467e-04
      6.83668535e-04 6.83604740e-04 6.83558173e-04 6.83874416e-04
      6.83218357e-04 6.83147518e-04 6.83129241e-04 6.82278827e-04
      6.82291924e-04 6.82930637e-04 6.83086924e-04 6.84025988e-04
      6.82743266e-04 6.83365739e-04 6.83467195e-04 6.85247593e-04
      6.85568783e-04 6.84683328e-04 6.85404812e-04 6.85679726e-04
      6.86361687e-04 6.87641732e-04 6.88618282e-04 6.87391963e-04
      6.87772175e-04 6.88236847e-04 6.89815613e-04 6.89081498e-04
      6.89898385e-04 6.90298039e-04 6.90873305e-04 6.91625872e-04
      6.90983259e-04 6.91056426e-04 6.91432972e-04 6.90024928e-04
      6.90202985e-04 6.90364861e-04 6.90423360e-04 6.89896930e-04
      6.89941924e-04 6.89953798e-04 6.90186571e-04 6.90294662e-04
      6.90615154e-04 6.90780638e-04 6.90511544e-04 6.90660672e-04
      6.91601250e-04 6.91203459e-04 6.92275702e-04 6.92541129e-04
      6.93628681e-04 6.92325237e-04 6.92467846e-04 6.92420057e-04
      6.93143171e-04 6.94007846e-04 6.96781266e-04 6.97219220e-04
      6.97879586e-04 6.98226562e-04 6.98568474e-04 6.99044322e-04
      6.99285942e-04 6.98231626e-04 6.96921838e-04 6.97405543e-04
      6.97095005e-04 6.96033821e-04 6.98023476e-04 6.98268181e-04
      6.97982556e-04 6.99668133e-04 7.00032571e-04 6.99429540e-04
      6.98565273e-04 6.98817312e-04 6.98202057e-04 6.98271848e-04
      6.97583950e-04 6.97591284e-04 6.97705429e-04 6.98809978e-04
      6.98938326e-04 6.99072669e-04 6.98553049e-04 7.01007433e-04
      7.02120422e-04 7.02422345e-04 7.02662626e-04 7.02751335e-04
      7.04486331e-04 7.03658094e-04 7.01865240e-04 7.02293415e-04
      7.01643585e-04 7.03331374e-04 7.03809492e-04 7.01991841e-04
      7.03187950e-04 7.04866601e-04 7.03528000e-04 7.03643775e-04
      7.04824633e-04 7.05331389e-04 7.05414510e-04 7.05831917e-04
      7.05475977e-04 7.05044251e-04 7.04983249e-04 7.03825906e-04
      7.03973812e-04 7.06017483e-04 7.05717306e-04 7.06462364e-04
      7.06324121e-04 7.08379084e-04 7.08725129e-04 7.08735432e-04
      7.08537758e-04 7.09062268e-04 7.09234213e-04 7.07698578e-04
      7.07875297e-04 7.06995954e-04 7.05447572e-04 7.05761719e-04
      7.05840939e-04 7.07833096e-04 7.06224411e-04 7.06341700e-04
      7.06597115e-04 7.07201485e-04 7.07919418e-04 7.08507083e-04
      7.09081127e-04 7.07926345e-04 7.06417777e-04 7.06791645e-04
      7.07456085e-04 7.07895902e-04 7.07154162e-04 7.06484192e-04
      7.08445325e-04 7.07648753e-04 7.07087980e-04 7.06122199e-04
      7.08209118e-04 7.08684034e-04 7.08038802e-04 7.05475453e-04
      7.06001942e-04 7.06353458e-04 7.06353516e-04 7.07353523e-04
      7.07618950e-04 7.07714760e-04 7.07842933e-04 7.06571154e-04
      7.06793333e-04 7.05839891e-04 7.06085120e-04 7.06354040e-04
      7.07978674e-04 7.08020292e-04 7.08228792e-04 7.07266212e-04
      7.06720166e-04 7.07171974e-04 7.06575403e-04 7.06099672e-04
      7.07247702e-04 7.05812650e-04 7.06644729e-04 7.07348518e-04
      7.06790714e-04 7.05566839e-04 7.06118590e-04 7.04721373e-04
      7.04250182e-04 7.03658618e-04 7.03120721e-04 7.04263744e-04
      7.05107523e-04 7.05270912e-04 7.06684426e-04 7.06915744e-04
      7.06666091e-04 7.06657767e-04 7.06482911e-04 7.06930005e-04
      7.05910905e-04 7.06384075e-04 7.06775172e-04 7.07802421e-04
      7.08226638e-04 7.07955624e-04 7.06804567e-04 7.06913706e-04
      7.07354280e-04 7.06172374e-04 7.06206716e-04 7.06334889e-04
      7.06452527e-04 7.06671330e-04 7.07361905e-04 7.06558407e-04
      7.08030129e-04 7.07804400e-04 7.06451829e-04 7.06553634e-04
      7.07666681e-04 7.06860097e-04 7.06913823e-04 7.07408006e-04
      7.07204104e-04 7.07520230e-04 7.06921041e-04 7.07660627e-04
      7.07348809e-04 7.07001542e-04 7.08057603e-04 7.08108593e-04
      7.08330888e-04 7.08616746e-04 7.06804974e-04 7.07079191e-04
      7.07689789e-04 7.07124767e-04 7.05366838e-04 7.03484693e-04
      7.01002718e-04 7.01981073e-04 7.02551042e-04 7.01620011e-04
      7.01890502e-04 7.02980498e-04 7.03176949e-04 7.03495753e-04
      7.04028818e-04 7.01891724e-04 7.01820536e-04 7.02241727e-04
      7.00399745e-04 7.01506448e-04 7.01621582e-04 7.03900994e-04
      7.03704776e-04 7.03887315e-04 7.04217819e-04 7.04280566e-04
      7.04531267e-04 7.05115206e-04 7.05976912e-04 7.05767598e-04
      7.03658559e-04 7.04065373e-04 7.03867874e-04 7.05131621e-04
      7.03925209e-04 7.03846803e-04 7.03177939e-04 7.02443824e-04
      7.02220190e-04 7.02283520e-04 7.03349942e-04 7.03888945e-04
      7.04258971e-04 7.02908495e-04 7.03130790e-04 7.04459380e-04
      7.04889186e-04 7.04240985e-04 7.04631384e-04 7.04776205e-04
      7.03170954e-04 7.03226542e-04 7.03937432e-04 7.02383637e-04
      7.02976191e-04 7.03123864e-04 7.03752623e-04 7.04195932e-04
      7.03503145e-04 7.03863741e-04 7.04256410e-04 7.04885228e-04
      7.03235855e-04 7.02693593e-04 7.02504069e-04 7.01982935e-04
      7.02048768e-04 7.01215758e-04 7.01701676e-04 7.02726829e-04
      7.04365666e-04 7.05051876e-04 7.04180275e-04 7.05713872e-04
      7.05188024e-04 7.04534701e-04 7.04817125e-04 7.03873229e-04
      7.02566875e-04 7.01724843e-04 7.00821111e-04 7.02171703e-04
      6.99810102e-04 7.00352073e-04 7.02672929e-04 7.02738995e-04
      7.03175028e-04 7.03438127e-04 6.98885939e-04 6.99732802e-04
      6.97516254e-04 6.93806855e-04 6.93835376e-04 6.91468362e-04
      6.90778892e-04 6.91059569e-04 6.91731169e-04 6.91997586e-04
      6.91521389e-04 6.90067827e-04 6.90740591e-04 6.91590889e-04
      6.91238442e-04 6.92539033e-04 6.92950445e-04 6.93926471e-04
      6.91601017e-04 6.91662775e-04 6.91533904e-04 6.91765803e-04
      6.92209171e-04 6.93950802e-04 6.93162205e-04 6.93281530e-04
      6.93344220e-04 6.92012254e-04 6.91628084e-04 6.92758593e-04
      6.92264759e-04 6.92578964e-04 6.91716443e-04 6.92018250e-04
      6.90549437e-04 6.89089298e-04 6.88944478e-04 6.89124106e-04
      6.87688065e-04 6.87316526e-04 6.87430613e-04 6.88220491e-04
      6.88119617e-04 6.88743952e-04 6.89538429e-04 6.89784414e-04
      6.89563400e-04 6.87802909e-04 6.88051514e-04 6.88739063e-04
      6.89037959e-04 6.88305940e-04 6.86657848e-04 6.85442879e-04
      6.85508538e-04 6.86119660e-04 6.86450454e-04 6.86605053e-04
      6.85015228e-04 6.85443636e-04 6.85727806e-04 6.85994630e-04
      6.83136866e-04 6.83555903e-04 6.84240717e-04 6.84207480e-04
      6.85128267e-04 6.82696293e-04 6.83253049e-04 6.83666265e-04
      6.83703634e-04 6.84386760e-04 6.84343860e-04 6.84935541e-04
      6.83926453e-04 6.83333841e-04 6.83318824e-04 6.85172679e-04
      6.82448095e-04 6.82571030e-04 6.83665567e-04 6.83799444e-04
      6.84310915e-04 6.84863713e-04 6.83510851e-04 6.84043858e-04
      6.84492174e-04 6.85264706e-04 6.85634150e-04 6.86108717e-04
      6.86536601e-04 6.84227329e-04 6.84412080e-04 6.84780884e-04
      6.86361571e-04 6.86691259e-04 6.84791885e-04 6.84661849e-04
      6.83299790e-04 6.82615326e-04 6.82732905e-04 6.82613812e-04
      6.83146995e-04 6.83205668e-04 6.84231112e-04 6.84438040e-04
      6.83269522e-04 6.84157014e-04 6.84395782e-04 6.84187922e-04
      6.85056206e-04 6.85293693e-04 6.87080959e-04 6.86705636e-04
      6.87028165e-04 6.86261978e-04 6.86200801e-04 6.85698004e-04
      6.85597188e-04 6.85803883e-04 6.86305750e-04 6.86778978e-04
      6.86335028e-04 6.86190324e-04 6.87113847e-04 6.87260355e-04
      6.86408603e-04 6.86794927e-04 6.87284453e-04 6.89196866e-04
      6.89365319e-04 6.89386565e-04 6.90348330e-04 6.91035180e-04
      6.90814864e-04 6.89567183e-04 6.90196524e-04 6.90330053e-04
      6.90906483e-04 6.91627967e-04 6.92352478e-04 6.92149042e-04
      6.90664747e-04 6.90181216e-04 6.90979243e-04 6.90536515e-04
      6.88665779e-04 6.88207278e-04 6.86298998e-04 6.85783045e-04
      6.86199113e-04 6.86550862e-04 6.86722284e-04 6.84947590e-04
      6.85320294e-04 6.84899627e-04 6.85076404e-04 6.84474013e-04
      6.85503357e-04 6.85496139e-04 6.85850915e-04 6.85501320e-04
      6.85460865e-04 6.86513900e-04 6.85683510e-04 6.85471634e-04
      6.85442646e-04 6.86606567e-04 6.85847946e-04 6.85347070e-04
      6.86040847e-04 6.86330022e-04 6.87776832e-04 6.87203661e-04
      6.89135981e-04 6.88233646e-04 6.88654429e-04 6.89186912e-04
      6.89805252e-04 6.89020380e-04 6.88553962e-04 6.86877116e-04
      6.87675842e-04 6.87692140e-04 6.87178399e-04 6.85372041e-04
      6.85437291e-04 6.85518375e-04 6.85299688e-04 6.85662206e-04
      6.83055958e-04 6.83131395e-04 6.80182886e-04 6.79356512e-04
      6.79745339e-04 6.80437952e-04 6.78678392e-04 6.76788797e-04
      6.76972326e-04 6.76103693e-04 6.77584263e-04 6.77783391e-04
      6.76507654e-04 6.77270058e-04 6.77863194e-04 6.78147015e-04
      6.78087119e-04 6.76620635e-04 6.76556665e-04 6.75852760e-04
      6.75264222e-04 6.72170136e-04 6.72582770e-04 6.72099821e-04
      6.71608665e-04 6.71645103e-04 6.70315407e-04 6.69104338e-04
      6.66234817e-04 6.65106811e-04 6.59010140e-04 6.57468161e-04
      6.57753320e-04 6.56553544e-04 6.55798707e-04 6.55166921e-04
      6.55424315e-04 6.53879601e-04 6.51772076e-04 6.51755894e-04
      6.51047972e-04 6.50135917e-04 6.49803085e-04 6.46635192e-04
      6.46424014e-04 6.46226632e-04 6.45986642e-04 6.44651940e-04
      6.44371961e-04 6.42602565e-04 6.43319043e-04 6.43488136e-04
      6.43037027e-04 6.42903557e-04 6.43423351e-04 6.43716776e-04
      6.38111786e-04 6.37777208e-04 6.27042085e-04 6.23582804e-04
      6.23779779e-04 6.24791079e-04 6.20655541e-04 6.20446110e-04
      6.13368757e-04 6.09058479e-04 6.09656738e-04 6.09482464e-04
      6.05900481e-04 6.02024316e-04 6.01805688e-04 5.97531442e-04
      5.93672856e-04 5.93847886e-04 5.93806617e-04 5.90120442e-04
      5.90138661e-04 5.89220494e-04 5.89778239e-04 5.86025650e-04
      5.85145492e-04 5.84825408e-04 5.84619411e-04 5.81920729e-04
      5.80610416e-04 5.79820597e-04 5.78512088e-04 5.79437008e-04
      5.78940380e-04 5.78658248e-04 5.80019201e-04 5.71654469e-04
      5.71065873e-04 5.64000686e-04 5.61593799e-04 5.52156300e-04
      5.51345234e-04 5.49369201e-04 5.49413322e-04 5.46720694e-04
      5.44806826e-04 5.45303104e-04 5.43897448e-04 5.43862232e-04
      5.42269321e-04 5.41338813e-04 5.40667155e-04 5.35843777e-04
      5.32865641e-04 5.27999189e-04 5.14348969e-04 5.15224470e-04
      5.06271375e-04 5.06835349e-04 5.06860728e-04 5.06947516e-04
      5.04045980e-04 5.01709175e-04 4.99219517e-04 4.94461332e-04
      4.94259642e-04 4.94947424e-04 4.90864215e-04 4.91347746e-04
      4.88940044e-04 4.86297678e-04 4.80454444e-04 4.82100004e-04
      4.76980757e-04 4.74857923e-04 4.74056462e-04 4.69256571e-04
      4.64657991e-04 4.58028197e-04 4.53165267e-04 4.39864642e-04
      4.35986905e-04 4.36063943e-04 4.35417402e-04 4.29773878e-04
      4.31026274e-04 4.23891208e-04 4.18124051e-04 4.06806357e-04
      4.10504814e-04 4.06956649e-04 3.97009804e-04 3.90932808e-04
      3.89900641e-04 3.88328248e-04 3.84951854e-04 3.86621425e-04
      3.86740750e-04 3.87467531e-04 3.84691317e-04 3.85778170e-04
      3.83513980e-04 3.82726779e-04 3.81486461e-04 3.83032602e-04
      3.79476027e-04 3.79484671e-04 3.78745870e-04 3.78442055e-04
      3.80154670e-04 3.74684809e-04 3.76053737e-04 3.76702723e-04
      3.79513833e-04 3.78142577e-04 3.71424918e-04 3.68608540e-04
      3.69408430e-04 3.69193178e-04 3.63799161e-04 3.60396836e-04
      3.61831364e-04 3.61839600e-04 3.61701124e-04 3.61607235e-04
      3.56616714e-04 3.56490433e-04 3.54293530e-04 3.59538099e-04
      3.60184495e-04 3.50899849e-04 3.50570161e-04 3.50594375e-04
      3.43884545e-04 3.45726381e-04 3.42332205e-04 3.34317097e-04
      3.35765799e-04 3.28782335e-04 3.21853731e-04 3.13866942e-04
      3.11815675e-04 3.07631824e-04 2.95782171e-04 2.89633434e-04
      2.82179302e-04 2.82110093e-04 2.76836188e-04 2.76552630e-04
      2.73553655e-04 2.55408930e-04 2.57339329e-04 2.54690996e-04
      2.54261366e-04 2.55943945e-04 2.58667307e-04 2.57375621e-04
      2.56427302e-04 2.56345491e-04 2.46751064e-04 2.45358387e-04
      2.38379769e-04 2.40390786e-04 2.32515114e-04 2.35296335e-04
      2.30642690e-04 2.31582933e-04 2.31571088e-04 2.29422149e-04
      2.25132972e-04 2.16132365e-04 2.06072655e-04 2.04379103e-04
      2.03887656e-04 2.12293686e-04 2.00297451e-04 1.99397196e-04
      2.07990597e-04 2.02311174e-04 1.98677735e-04 1.99618735e-04
      1.96330875e-04 1.98526977e-04 2.00279261e-04 2.05657037e-04
      1.97298621e-04 1.95975663e-04 1.96116511e-04 1.86742473e-04
      1.88958147e-04 1.88618593e-04 1.84936755e-04 1.89173821e-04
      1.68441999e-04 1.69093662e-04 1.58225943e-04 1.59780102e-04
      1.56399226e-04 1.63772565e-04 1.59249379e-04 1.60244614e-04
      1.55276459e-04 1.59013085e-04 1.44360558e-04 1.39863201e-04
      1.36411312e-04 1.36263887e-04 1.27409032e-04 1.27675972e-04
      1.25363615e-04 1.27390274e-04 1.39262964e-04 1.25582956e-04
      1.27407431e-04 1.27368461e-04 1.15984083e-04 1.04062288e-04
      9.31847098e-05 7.98889523e-05 6.85396808e-05 7.40152173e-05
      7.78290851e-05 8.03329604e-05 8.15375897e-05 8.67427007e-05
      8.93760662e-05 8.93817923e-05 8.54468526e-05 8.79673971e-05
      8.64147514e-05 8.37566622e-05 8.61309600e-05 9.11101524e-05
      9.63936836e-05 8.26205651e-05 8.96393904e-05 8.25019888e-05
      8.18981935e-05 6.71287344e-05 7.18396550e-05 7.63846328e-05
      7.86426317e-05 8.17449254e-05 7.88023535e-05 4.76787282e-05
      4.21990408e-05 3.96305040e-05 3.78422737e-05 3.09134957e-05
      3.36574958e-05 3.01036052e-05 3.04123259e-05 3.05859467e-05
      2.64340288e-05 1.71055926e-05 1.01814312e-05 7.30168131e-06
      5.62918785e-06 1.21082103e-05 6.48888727e-06 -6.25406074e-06
      -1.15807179e-05 -2.15441887e-05 -3.19487117e-05 -3.09033094e-05
      -3.46226552e-05 -3.50680020e-05 -2.96998915e-05 -3.15947218e-05
      -3.31654737e-05 -4.91025348e-05 -4.04250713e-05 -4.31693115e-05
      -4.17951815e-05 -3.17963204e-05 -3.19379869e-05 -5.09439742e-05
      -5.21268375e-05 -5.30470752e-05 -4.45740043e-05 -4.46247432e-05
      -5.09871170e-05 -5.54613071e-05 -6.05739588e-05 -5.75260528e-05
      -5.52222009e-05 -6.21261570e-05 -6.80156954e-05 -7.12614128e-05
      -6.93980546e-05 -7.32595581e-05 -7.97848625e-05 -8.53738675e-05
      -8.22483053e-05 -8.54484606e-05 -9.77527889e-05 -1.07900050e-04
      -1.05210143e-04 -1.08540553e-04 -1.14468545e-04 -1.16711330e-04
      -1.14592665e-04 -1.15042400e-04 -1.20846089e-04 -1.25911974e-04
      -1.30492059e-04 -1.33039794e-04 -1.31548659e-04 -1.44875172e-04
      -1.44418911e-04 -1.39958749e-04 -1.27192048e-04 -1.32273388e-04
      -1.29497625e-04 -1.32698653e-04 -1.29705237e-04 -1.31197608e-04
      -1.23035235e-04 -1.26730985e-04 -1.27257270e-04 -1.30400062e-04
      -1.35100054e-04 -1.36709205e-04 -1.35385562e-04 -1.32717163e-04
      -1.40759614e-04 -1.47358092e-04 -1.44484380e-04 -1.47646220e-04
      -1.38802628e-04 -1.43805752e-04 -1.42242949e-04 -1.33600886e-04
      -1.29148859e-04 -1.17837437e-04 -1.27828607e-04 -1.31012537e-04
      -1.23462436e-04 -1.21174795e-04 -1.38834890e-04 -1.37069219e-04
      -1.34120739e-04 -1.24959275e-04 -1.29768960e-04 -1.49228785e-04
      -1.34715665e-04 -1.34779955e-04 -1.21232777e-04 -1.07922744e-04
      -1.01967191e-04 -7.01015670e-05 -6.70219524e-05 -5.69286567e-05
      -1.41044252e-03 -1.31000287e-03 -1.22350408e-03 -1.10236369e-03
      -1.02361816e-03 -1.00848835e-03 -1.06978859e-03 -1.01639295e-03
      -1.00652257e-03 -9.22922743e-04 -7.92606035e-04 -6.89486100e-04
      -6.23570115e-04 -6.89749431e-04 -9.08147311e-04 -8.60831176e-04
      -8.05438845e-04 -8.43373535e-04 -8.65063746e-04 -8.57417006e-04
      -8.05389951e-04 -4.84922522e-04 -6.83097314e-05 3.70723807e-04
      6.80685975e-04 7.53697590e-04 7.85037875e-04 7.48070597e-04
      7.26547849e-04 7.42489938e-04 7.09135667e-04 7.65557576e-04
      8.68434843e-04 8.35690240e-04 7.65745295e-04 6.78724842e-04
      6.47131645e-04 6.04464673e-04 5.45347692e-04 4.85001394e-04
      4.83974029e-04 4.50807129e-04 4.62734548e-04 5.45696239e-04
      6.02062850e-04 6.16036996e-04 6.30739436e-04 6.41171355e-04
      6.45240885e-04 6.44479413e-04 6.20462000e-04 6.30961440e-04
      6.52900664e-04 6.41076069e-04 6.11780211e-04 6.36752055e-04
      7.04356004e-04 7.57529458e-04 7.73379812e-04 8.13700608e-04
      8.21617257e-04 8.15731706e-04 8.36725230e-04 8.77216458e-04
      9.19350423e-04 9.55489639e-04 9.78444587e-04 9.56823409e-04
      9.32242605e-04 8.47990392e-04 7.85447482e-04 7.17120536e-04
      7.03476195e-04 6.72181661e-04 7.01870595e-04 7.64438184e-04
      7.04792677e-04 5.21502050e-04 3.04152229e-04 7.17777730e-05
      -3.16278631e-04 -5.45366667e-04 -4.68602142e-04 -2.95202568e-04
      -4.27595602e-04 -8.64200934e-04 -1.14685460e-03 -1.26865727e-03
      -1.24937680e-03 -1.09917496e-03 -7.86662742e-04 -8.34071543e-04
      -7.60235707e-04 -5.29298035e-04 -4.26791783e-04 -4.42674209e-04
      -1.85138531e-04 -5.64391921e-05 -1.58326220e-04 -3.43127816e-04
      -1.31857838e-03 -1.23404514e-03 -1.19614659e-03 -1.16243958e-03
      -1.08033756e-03 -1.00132427e-03 -1.04795769e-03 -1.06278143e-03
      -1.02360151e-03 -9.32168041e-04 -7.82421150e-04 -6.65253960e-04
      -5.64514368e-04 -7.40060292e-04 -9.18283535e-04 -9.35369055e-04
      -8.90239899e-04 -9.43005085e-04 -9.22334904e-04 -8.73360608e-04
      -8.42090521e-04 -5.44107752e-04 -1.67010119e-04 2.13165695e-04
      5.76215913e-04 7.23605626e-04 7.41457974e-04 7.79915019e-04
      7.55618501e-04 7.87649071e-04 7.35265610e-04 8.37550557e-04
      9.48355068e-04 9.05512832e-04 7.77983048e-04 7.37063645e-04
      7.16812036e-04 6.86433690e-04 6.15045894e-04 5.31300029e-04
      5.14293439e-04 4.95085667e-04 5.18712215e-04 5.67393377e-04
      6.13440934e-04 6.41325954e-04 6.49973052e-04 6.80583180e-04
      7.04843318e-04 7.09669723e-04 7.07066618e-04 7.04967009e-04
      7.16661219e-04 7.12075678e-04 6.53889321e-04 6.54974196e-04
      7.27736857e-04 7.71869265e-04 7.85664364e-04 7.79955357e-04
      7.94484047e-04 7.87258206e-04 8.01899063e-04 8.50853336e-04
      8.98465631e-04 9.31654940e-04 9.36678960e-04 9.13278491e-04
      8.57577717e-04 7.69584265e-04 6.78005454e-04 6.33807504e-04
      5.97861828e-04 5.77162195e-04 6.23271393e-04 6.92920235e-04
      6.88287022e-04 5.18274610e-04 2.60078727e-04 -6.39690406e-05
      -4.12187161e-04 -5.44424809e-04 -4.49656509e-04 -2.55047431e-04
      -3.56689940e-04 -6.79891033e-04 -9.96626914e-04 -1.20203127e-03
      -1.15109514e-03 -1.05773180e-03 -7.96727254e-04 -8.19930981e-04
      -7.30493164e-04 -5.26550226e-04 -4.09656699e-04 -4.46414342e-04
      -2.22967850e-04 -1.62953838e-05 -1.13014838e-04 -3.16843478e-04
      -1.29717274e-03 -1.24372251e-03 -1.22322130e-03 -1.15217071e-03
      -1.02110580e-03 -9.82880476e-04 -9.94931906e-04 -9.84176411e-04
      -9.19424230e-04 -8.28973367e-04 -6.96029165e-04 -5.75267419e-04
      -6.00945204e-04 -7.99550442e-04 -9.85032413e-04 -9.44326515e-04
      -9.40136611e-04 -1.01788668e-03 -9.79485805e-04 -9.06497298e-04
      -9.04552056e-04 -5.98467072e-04 -2.96217506e-04 6.48593341e-05
      5.27676719e-04 6.87851571e-04 6.95939583e-04 8.11252859e-04
      7.73672131e-04 7.23951787e-04 7.39477167e-04 8.55674502e-04
      9.62009653e-04 8.88967363e-04 8.07368953e-04 7.69879611e-04
      7.42446748e-04 7.12274108e-04 6.50009140e-04 5.77082159e-04
      5.38929598e-04 5.29666780e-04 5.73181314e-04 5.93387173e-04
      6.01440028e-04 6.42442901e-04 6.44672546e-04 6.58298959e-04
      6.92195550e-04 7.31293461e-04 7.34772650e-04 7.36086804e-04
      7.49789644e-04 7.44777033e-04 7.04248901e-04 7.07149506e-04
      7.51796935e-04 7.83249561e-04 7.83134892e-04 7.95599539e-04
      7.81732728e-04 7.59797695e-04 7.76119821e-04 8.45323957e-04
      9.03167878e-04 9.37786303e-04 9.38696030e-04 8.91428150e-04
      7.79575028e-04 6.64957683e-04 6.04207162e-04 5.53388847e-04
      4.90130100e-04 4.51444270e-04 5.12693310e-04 5.89101284e-04
      6.08860573e-04 4.60369949e-04 1.98465350e-04 -1.90966515e-04
      -4.68239974e-04 -4.88450576e-04 -4.19423508e-04 -2.24248332e-04
      -1.94490145e-04 -4.55813890e-04 -8.03441915e-04 -9.86752333e-04
      -9.22125822e-04 -8.39373912e-04 -7.01899640e-04 -7.70271407e-04
      -7.50058272e-04 -5.93689736e-04 -3.87961016e-04 -3.98445758e-04
      -2.17492430e-04 3.64294719e-05 -3.10365976e-05 -2.70517019e-04
      -1.36373879e-03 -1.31485576e-03 -1.20428682e-03 -1.05681841e-03
      -9.35443328e-04 -9.61240614e-04 -9.29385540e-04 -8.21092923e-04
      -8.02898721e-04 -7.62662210e-04 -6.88906701e-04 -6.28979178e-04
      -6.61539147e-04 -8.45096598e-04 -9.58400720e-04 -8.94015888e-04
      -9.33009142e-04 -1.09624362e-03 -9.99387703e-04 -9.20880295e-04
      -8.98013706e-04 -6.59892801e-04 -3.67553614e-04 -1.87244277e-05
      4.42523393e-04 6.73556468e-04 7.05931336e-04 8.30577104e-04
      7.38882110e-04 6.65772706e-04 7.04870909e-04 8.48498021e-04
      9.25468164e-04 8.72349017e-04 8.12919694e-04 7.84441188e-04
      7.29790365e-04 6.87774271e-04 6.20642211e-04 5.52299607e-04
      5.38620923e-04 5.53273130e-04 5.85319125e-04 5.97324339e-04
      6.10328803e-04 6.26615540e-04 5.93127508e-04 6.03190565e-04
      6.50190806e-04 6.92852424e-04 7.14051013e-04 7.36247515e-04
      7.54716923e-04 7.31745386e-04 7.30787171e-04 7.35423993e-04
      7.93111627e-04 8.03300529e-04 8.31955753e-04 8.37736938e-04
      8.29483790e-04 8.05783144e-04 7.93145853e-04 8.43207759e-04
      9.03553271e-04 9.46936081e-04 9.44290136e-04 8.69210577e-04
      7.58898270e-04 6.26085908e-04 5.44053153e-04 4.74959525e-04
      4.08493244e-04 3.71206959e-04 4.21980338e-04 4.68143029e-04
      4.52702807e-04 3.08986666e-04 1.94514905e-05 -3.10226547e-04
      -4.36431525e-04 -4.29140811e-04 -2.91297329e-04 -7.31925547e-06
      7.02629495e-06 -3.29563336e-04 -6.52106130e-04 -7.10556807e-04
      -6.12322998e-04 -5.45581221e-04 -5.89812989e-04 -7.45819416e-04
      -7.92278268e-04 -6.95184688e-04 -4.19442396e-04 -3.67833884e-04
      -2.05140037e-04 7.50300387e-05 3.70524617e-06 -2.31589409e-04
      -1.26693491e-03 -1.22104422e-03 -1.13516254e-03 -1.02149509e-03
      -1.00432336e-03 -9.36977973e-04 -8.58931453e-04 -7.71861232e-04
      -7.84073374e-04 -8.01045971e-04 -7.28344603e-04 -6.51427254e-04
      -7.11077300e-04 -8.79495405e-04 -8.76280013e-04 -8.29580124e-04
      -9.35437391e-04 -1.01692847e-03 -9.70869442e-04 -9.48711997e-04
      -9.06632049e-04 -6.98285643e-04 -4.41786135e-04 -8.91162708e-05
      3.51774914e-04 6.16614183e-04 7.71455001e-04 8.51165329e-04
      7.09849584e-04 5.99469466e-04 6.79740449e-04 7.92888517e-04
      8.44768947e-04 8.18060769e-04 7.58597802e-04 7.22305034e-04
      6.83551596e-04 6.35002099e-04 5.87299524e-04 5.50408731e-04
      5.36760665e-04 5.79295389e-04 5.79574436e-04 5.91895485e-04
      5.89254836e-04 5.83422836e-04 5.74594073e-04 5.83066081e-04
      6.14769408e-04 6.56820775e-04 6.98612479e-04 7.11169851e-04
      7.25338876e-04 7.05476617e-04 6.94000628e-04 7.17652380e-04
      7.68663420e-04 8.31348414e-04 8.61541543e-04 8.87126487e-04
      8.83614295e-04 8.70366755e-04 8.51100776e-04 8.66587972e-04
      9.19057289e-04 9.49620444e-04 9.24459833e-04 8.49968637e-04
      7.13681220e-04 5.76983148e-04 4.97227244e-04 4.54222551e-04
      3.74426338e-04 3.54101823e-04 4.00472200e-04 3.75354313e-04
      2.89477495e-04 1.33682959e-04 -1.51742104e-04 -3.45343229e-04
      -3.59379919e-04 -2.69341108e-04 -2.61036057e-05 1.64906261e-04
      3.85489620e-05 -3.66582593e-04 -5.47479780e-04 -4.79351584e-04
      -3.57694720e-04 -3.82127269e-04 -5.64183807e-04 -6.80985919e-04
      -7.57256290e-04 -6.99117489e-04 -4.79768089e-04 -4.15035407e-04
      -3.15971847e-04 -4.92723984e-06 2.68961339e-05 -1.16713498e-04
      -1.24319422e-03 -1.20509148e-03 -1.12459785e-03 -1.03834667e-03
      -9.84815881e-04 -9.13539319e-04 -8.47349118e-04 -8.63394001e-04
      -8.93646618e-04 -8.61752662e-04 -7.11230328e-04 -6.53031864e-04
      -7.84869189e-04 -9.64711013e-04 -8.03458795e-04 -8.05666845e-04
      -9.50339600e-04 -9.21689090e-04 -8.70021875e-04 -9.10721428e-04
      -9.29753354e-04 -8.07305565e-04 -5.59195934e-04 -2.29597805e-04
      2.26290722e-04 5.80880151e-04 7.79893948e-04 8.36409803e-04
      6.60876860e-04 5.98088256e-04 7.00371747e-04 7.79125141e-04
      7.85812445e-04 7.71264895e-04 7.20072363e-04 6.82446815e-04
      6.27285801e-04 5.85783215e-04 5.61633147e-04 5.65923634e-04
      5.73045167e-04 5.86746668e-04 5.96086727e-04 5.76594146e-04
      5.75528364e-04 5.74612932e-04 5.75794489e-04 5.64046495e-04
      6.06473244e-04 6.20108738e-04 6.35414559e-04 6.62839680e-04
      6.73850125e-04 6.84202241e-04 6.61269063e-04 6.79071934e-04
      7.24480895e-04 7.98385066e-04 8.28800781e-04 8.79007799e-04
      8.95236852e-04 9.01023566e-04 8.92844575e-04 8.85722286e-04
      8.98209633e-04 9.24932945e-04 9.16566816e-04 8.07394390e-04
      6.73811533e-04 5.28552511e-04 4.64910234e-04 4.04787454e-04
      3.87390057e-04 3.56647506e-04 3.68449953e-04 3.11791693e-04
      1.68613682e-04 -7.82284551e-05 -2.14807442e-04 -2.89633230e-04
      -3.02545202e-04 -1.68647472e-04 9.94855363e-05 1.49388899e-04
      -8.52247031e-05 -3.24841443e-04 -4.64444282e-04 -3.04043497e-04
      -2.03952004e-04 -2.66188959e-04 -4.41012933e-04 -5.48815762e-04
      -6.05011301e-04 -6.69303350e-04 -5.14114392e-04 -4.64752782e-04
      -3.75022442e-04 -5.37589367e-05 -9.59549743e-06 -7.77313180e-05
      -1.31719443e-03 -1.24597363e-03 -1.15638133e-03 -1.11485086e-03
      -1.10921718e-03 -1.05069054e-03 -1.00651686e-03 -1.03455863e-03
      -1.02066051e-03 -8.66215909e-04 -7.45368598e-04 -7.48578866e-04
      -7.71160820e-04 -7.59775809e-04 -6.74493029e-04 -7.65484816e-04
      -8.09656398e-04 -7.83390831e-04 -7.81337614e-04 -8.26815958e-04
      -9.11928539e-04 -8.85776710e-04 -6.68313296e-04 -3.28556518e-04
      9.46280197e-05 5.14893560e-04 7.42371369e-04 7.08182517e-04
      6.10016752e-04 5.78108826e-04 6.75326039e-04 7.45076279e-04
      7.26890110e-04 7.04384758e-04 6.54923439e-04 6.11001567e-04
      5.88689989e-04 5.83481102e-04 5.66803443e-04 5.71849640e-04
      5.71677112e-04 5.88941562e-04 5.88247669e-04 5.59022184e-04
      5.64716058e-04 5.65560302e-04 5.75479353e-04 5.74631325e-04
      5.82897861e-04 5.98360493e-04 6.02569431e-04 6.04690169e-04
      6.21017825e-04 6.52723946e-04 6.49898720e-04 6.40429207e-04
      6.80533936e-04 7.32802902e-04 7.73390813e-04 8.26112868e-04
      8.88665090e-04 9.08525719e-04 9.19075857e-04 9.05636174e-04
      8.97727383e-04 9.08187940e-04 8.76804057e-04 7.85298005e-04
      6.36472192e-04 5.33091312e-04 4.55030007e-04 4.34126268e-04
      3.77991353e-04 3.53416923e-04 3.23372893e-04 2.28096338e-04
      3.98724114e-05 -1.36463030e-04 -2.00985000e-04 -2.67446332e-04
      -2.89146148e-04 -8.28403136e-05 8.46006224e-05 4.95070381e-05
      -8.29444689e-05 -2.80184642e-04 -3.14668316e-04 -9.58355376e-05
      1.94934037e-05 -3.61013263e-05 -2.46448210e-04 -3.60650069e-04
      -5.51906938e-04 -6.92145084e-04 -5.50149358e-04 -5.30438032e-04
      -3.57249111e-04 -2.80296299e-05 -9.32166586e-06 -1.18977878e-04
      -1.42101943e-03 -1.31736416e-03 -1.23150891e-03 -1.19584985e-03
      -1.17613305e-03 -1.15382671e-03 -1.08544878e-03 -1.04712287e-03
      -1.02150452e-03 -9.30267037e-04 -9.20725346e-04 -8.05615622e-04
      -6.34403841e-04 -4.99795075e-04 -5.15581458e-04 -6.02461572e-04
      -6.66940119e-04 -6.87305001e-04 -6.80141500e-04 -7.20805780e-04
      -8.14902189e-04 -8.37071449e-04 -7.11866713e-04 -4.46352788e-04
      -1.34413931e-05 4.03112470e-04 6.16240723e-04 5.70786186e-04
      5.53573016e-04 6.10281539e-04 6.41534571e-04 6.59173122e-04
      6.77724078e-04 6.55100448e-04 6.09312323e-04 5.79118612e-04
      5.59172826e-04 5.79616462e-04 5.80118271e-04 5.86436363e-04
      5.95623162e-04 5.93729550e-04 5.75246871e-04 5.65396564e-04
      5.40735549e-04 5.45221148e-04 5.62902947e-04 5.65300288e-04
      5.61004621e-04 5.51903096e-04 5.58760483e-04 5.58897562e-04
      5.68196527e-04 5.81388071e-04 6.00734958e-04 6.22309046e-04
      6.40863669e-04 6.75986696e-04 6.99214579e-04 7.65134464e-04
      8.04812182e-04 8.60680069e-04 8.71780794e-04 8.66029470e-04
      8.75455968e-04 8.76099046e-04 8.61673849e-04 7.61951611e-04
      6.66017469e-04 5.61326742e-04 4.88275924e-04 4.60509211e-04
      4.09460772e-04 3.25541187e-04 2.13304695e-04 1.31801906e-04
      -8.83387565e-06 -7.84711810e-05 -1.41783778e-04 -2.38151944e-04
      -2.37716769e-04 -8.41045257e-05 -7.85781867e-06 -3.53571086e-05
      -1.23744991e-04 -3.41609615e-04 -8.95762932e-05 1.44329417e-04
      2.47866294e-04 1.41695578e-04 -7.31386026e-05 -2.44389870e-04
      -5.28414967e-04 -6.85216684e-04 -6.44873653e-04 -6.43804146e-04
      -3.96938995e-04 -5.11145190e-05 -5.27854900e-05 -1.61099975e-04
      -1.47127290e-03 -1.38046779e-03 -1.26929779e-03 -1.16330769e-03
      -1.11411139e-03 -1.07170048e-03 -1.03048480e-03 -1.01134239e-03
      -1.02861179e-03 -1.05531374e-03 -9.26032604e-04 -6.60598918e-04
      -4.62060270e-04 -4.31923341e-04 -4.01866535e-04 -4.72349930e-04
      -5.92999917e-04 -6.69636647e-04 -5.81424625e-04 -5.38856257e-04
      -6.42926607e-04 -7.24849757e-04 -6.87585387e-04 -4.63656470e-04
      -5.75225931e-05 3.05707770e-04 5.08925354e-04 5.20197849e-04
      5.60420973e-04 6.05588837e-04 6.06856600e-04 6.15238387e-04
      6.17810525e-04 6.09418028e-04 5.83213812e-04 5.54300321e-04
      5.62336063e-04 5.83368354e-04 5.91658230e-04 6.04111236e-04
      6.28643727e-04 6.01344451e-04 5.55323903e-04 5.43692964e-04
      5.29803743e-04 5.24281582e-04 5.35483588e-04 5.51472651e-04
      5.36983775e-04 5.17113600e-04 5.23915922e-04 5.36726497e-04
      5.42794238e-04 5.46469237e-04 5.61182271e-04 5.81519795e-04
      5.93493751e-04 6.38276630e-04 6.70417445e-04 7.26076367e-04
      7.62505748e-04 8.00990849e-04 8.13302700e-04 8.40491964e-04
      8.47722054e-04 8.47276824e-04 8.34210077e-04 7.79008551e-04
      7.01713900e-04 6.08599163e-04 5.52159676e-04 5.03568270e-04
      4.19153163e-04 2.88814132e-04 1.99429298e-04 1.06513879e-04
      4.82831965e-05 3.07295049e-05 -5.61558845e-05 -1.85428013e-04
      -1.78259186e-04 -1.38990828e-04 -1.12762522e-04 -1.38066112e-04
      -4.03816986e-04 -4.28099796e-04 1.12073154e-04 3.13300348e-04
      3.63274739e-04 2.29872472e-04 1.23695296e-04 -3.47030073e-05
      -3.36109020e-04 -5.84220688e-04 -7.23965815e-04 -7.56198016e-04
      -4.26338724e-04 -4.48703431e-05 -4.28600797e-05 -1.79140479e-04
      -1.48817222e-03 -1.39521342e-03 -1.23811548e-03 -1.10091898e-03
      -9.70568566e-04 -9.08728340e-04 -9.92750633e-04 -9.83669190e-04
      -9.68505454e-04 -9.06348636e-04 -6.96057803e-04 -4.65752295e-04
      -3.39161168e-04 -3.37475270e-04 -2.73070676e-04 -3.68527661e-04
      -5.74195816e-04 -6.10016519e-04 -4.92554158e-04 -3.97775439e-04
      -4.33793874e-04 -5.69526106e-04 -5.58505708e-04 -3.68267181e-04
      -8.69716387e-05 2.48028606e-04 4.49226471e-04 5.12395636e-04
      5.81607746e-04 5.97108214e-04 5.79888409e-04 5.80041611e-04
      5.71366691e-04 5.87324030e-04 5.80697844e-04 5.73604426e-04
      5.72873512e-04 5.88460243e-04 5.91076910e-04 6.01701497e-04
      6.11271767e-04 5.88559953e-04 5.54820639e-04 5.22366026e-04
      5.06204786e-04 5.11794642e-04 5.03510702e-04 5.22285758e-04
      5.05614269e-04 4.85683442e-04 4.90544888e-04 5.13628183e-04
      5.16347936e-04 5.15455147e-04 5.15633437e-04 5.30876569e-04
      5.53363876e-04 5.87422110e-04 6.29490474e-04 6.70137990e-04
      7.17423682e-04 7.55177927e-04 7.71071645e-04 7.86006916e-04
      8.36784078e-04 8.38209467e-04 8.36921914e-04 8.06468248e-04
      7.26423343e-04 6.32599171e-04 5.68832562e-04 5.16147295e-04
      4.08187305e-04 2.40112277e-04 2.23273222e-04 1.77768365e-04
      1.59714531e-04 1.57496688e-04 9.56908916e-05 -4.78688489e-05
      -1.73246081e-04 -1.95683140e-04 -1.82865013e-04 -3.50141287e-04
      -6.88313739e-04 -4.73188091e-04 1.31593435e-04 3.74378578e-04
      3.67246859e-04 2.90439755e-04 2.51405698e-04 1.32197179e-04
      -1.02630976e-04 -4.46385471e-04 -6.80533005e-04 -7.03160884e-04
      -4.14116977e-04 1.70563417e-05 -2.02845367e-05 -1.89797327e-04
      -1.52648462e-03 -1.39697897e-03 -1.19373365e-03 -1.08981691e-03
      -9.57856420e-04 -8.88208393e-04 -9.43158171e-04 -8.97965394e-04
      -8.52042751e-04 -7.15225062e-04 -5.38410095e-04 -3.01907508e-04
      -1.86212870e-04 -1.60190684e-04 -1.76465153e-04 -2.86716182e-04
      -4.89808852e-04 -6.02420012e-04 -4.70535917e-04 -3.00796237e-04
      -2.67154945e-04 -3.40528088e-04 -2.93079502e-04 -2.46332493e-04
      -8.48262353e-05 1.57407703e-04 3.83215083e-04 5.16216154e-04
      5.64512331e-04 5.67797339e-04 5.75753569e-04 5.78897248e-04
      5.64156508e-04 5.64553367e-04 5.75327955e-04 5.69452124e-04
      5.64293936e-04 5.82313456e-04 5.88816416e-04 5.85924601e-04
      5.86567447e-04 5.73356287e-04 5.53021615e-04 5.11527702e-04
      4.94604290e-04 4.99488786e-04 4.80737508e-04 4.90183709e-04
      4.71542851e-04 4.38657851e-04 4.59430914e-04 4.81237948e-04
      4.84994205e-04 4.77271184e-04 4.91666549e-04 4.89641156e-04
      5.09859412e-04 5.52551588e-04 5.83705783e-04 6.06342510e-04
      6.42764964e-04 6.83339371e-04 6.99669064e-04 7.37913942e-04
      7.84595904e-04 8.14465515e-04 8.21922964e-04 8.16263026e-04
      7.46884849e-04 6.80732250e-04 6.09404407e-04 5.03248419e-04
      3.74818512e-04 2.71208060e-04 2.55508116e-04 2.12426472e-04
      2.64271686e-04 2.67930824e-04 1.97375994e-04 -6.09016524e-06
      -1.53670539e-04 -2.40536348e-04 -2.38684530e-04 -5.53629303e-04
      -8.68488976e-04 -4.99989721e-04 4.81093884e-05 3.29366216e-04
      3.99803306e-04 3.38203943e-04 3.41711740e-04 3.45531938e-04
      1.63058707e-04 -2.57637323e-04 -5.41874964e-04 -5.85814530e-04
      -3.58529476e-04 1.10680026e-04 8.66411574e-05 -1.33278023e-04
      -1.58974179e-03 -1.47023029e-03 -1.25404843e-03 -1.10315299e-03
      -9.39991500e-04 -8.60683096e-04 -8.32750695e-04 -8.48585099e-04
      -7.59363291e-04 -6.43061474e-04 -4.43515106e-04 -2.02022522e-04
      -1.28075815e-04 -9.29211310e-05 -8.01279384e-05 -1.71247390e-04
      -4.02043981e-04 -5.67209441e-04 -4.67101461e-04 -2.06967263e-04
      -8.66783957e-05 -6.14579258e-05 -2.08227102e-05 -7.63880598e-05
      -1.37277666e-05 1.69020976e-04 3.31446849e-04 4.25017410e-04
      4.67524835e-04 5.19687834e-04 5.50049881e-04 5.54326631e-04
      5.65870898e-04 5.54090249e-04 5.40063542e-04 5.41598478e-04
      5.26845513e-04 5.40794746e-04 5.59632375e-04 5.66868053e-04
      5.75166254e-04 5.56325773e-04 5.23238734e-04 4.92564985e-04
      4.71553736e-04 4.73251712e-04 4.44378791e-04 4.54505789e-04
      4.46952879e-04 4.18973126e-04 4.28055966e-04 4.31249617e-04
      4.39748255e-04 4.25987819e-04 4.36267641e-04 4.51742584e-04
      4.53766756e-04 4.75138455e-04 5.11887425e-04 5.21705253e-04
      5.67629468e-04 5.98257117e-04 6.03133172e-04 6.36333250e-04
      6.97509735e-04 7.29142397e-04 7.57606584e-04 7.63557444e-04
      7.48082413e-04 6.90397865e-04 6.12759497e-04 4.77870635e-04
      3.57264100e-04 2.95646401e-04 2.83166126e-04 2.83786037e-04
      3.11039126e-04 2.85633636e-04 1.50709035e-04 3.80144265e-05
      -1.25272010e-04 -1.98195092e-04 -3.20564664e-04 -6.94452785e-04
      -8.55438935e-04 -5.92473429e-04 -1.02403188e-04 3.09281400e-04
      4.14560229e-04 3.89211287e-04 4.52301902e-04 5.50279743e-04
      3.31729621e-04 -4.49770887e-05 -3.91663954e-04 -4.16046300e-04
      -2.77433253e-04 2.33764848e-04 1.97282061e-04 -2.73185869e-05
      -1.56660052e-03 -1.48487336e-03 -1.29087910e-03 -1.07342645e-03
      -9.12528776e-04 -8.37468833e-04 -8.11399077e-04 -8.38266686e-04
      -7.91731116e-04 -5.84320573e-04 -3.11511976e-04 -1.27974621e-04
      -1.09569432e-04 -6.25417379e-05 -1.77712391e-05 -1.29235283e-04
      -3.80200683e-04 -5.75368642e-04 -4.52922424e-04 -1.32077403e-04
      1.20284742e-04 2.41956339e-04 2.61826121e-04 1.84105142e-04
      1.97676447e-04 2.71919736e-04 3.12064687e-04 3.30895971e-04
      3.77142220e-04 4.38213756e-04 5.00757422e-04 5.51319623e-04
      5.72966877e-04 5.44248905e-04 5.30431571e-04 5.29603742e-04
      5.24884264e-04 5.48378099e-04 5.58777654e-04 5.61034482e-04
      5.78494626e-04 5.56096144e-04 5.16486936e-04 4.72357729e-04
      4.56876791e-04 4.47496714e-04 4.16978204e-04 4.38629009e-04
      4.34304529e-04 4.15968709e-04 3.98022996e-04 4.04591789e-04
      3.94764967e-04 3.86019034e-04 3.88170040e-04 4.06498846e-04
      4.14927315e-04 4.14761307e-04 4.43158206e-04 4.62012424e-04
      4.64592391e-04 4.95737710e-04 4.98607755e-04 5.20526199e-04
      5.62832574e-04 6.11491501e-04 6.58498204e-04 6.91460969e-04
      6.95873227e-04 6.59187790e-04 5.82547975e-04 4.38816292e-04
      3.24284105e-04 2.97180726e-04 2.72512581e-04 3.08113929e-04
      3.24492401e-04 2.42090260e-04 1.55902439e-04 1.28422209e-04
      -4.55880436e-05 -1.51960892e-04 -3.76480777e-04 -6.93791953e-04
      -7.50840933e-04 -5.54482685e-04 -7.57855669e-05 2.72884616e-04
      3.65773652e-04 3.77635442e-04 6.00375759e-04 6.72087655e-04
      4.35512309e-04 5.30257385e-05 -3.44127940e-04 -3.71609407e-04
      -2.17770357e-04 3.07999871e-04 2.38301989e-04 6.21901054e-05
      -1.52150949e-03 -1.47113937e-03 -1.30513543e-03 -1.14188471e-03
      -1.02408405e-03 -9.39188874e-04 -8.85809306e-04 -8.65093549e-04
      -8.16909596e-04 -5.73567522e-04 -2.50591431e-04 -7.51367625e-05
      -6.41227307e-05 -8.81644301e-05 -1.48793391e-04 -3.13438824e-04
      -4.91489831e-04 -5.74935577e-04 -4.51002445e-04 -9.01133535e-05
      2.88905110e-04 5.27702039e-04 5.54671569e-04 4.94805921e-04
      3.82751401e-04 3.26807261e-04 2.87613366e-04 2.66705320e-04
      2.94215919e-04 3.61018145e-04 4.56281326e-04 5.35576139e-04
      5.62109635e-04 5.83312591e-04 5.46937285e-04 5.28661942e-04
      5.50096272e-04 5.71247889e-04 5.92185708e-04 6.04494708e-04
      6.00902131e-04 5.69277385e-04 5.50018973e-04 4.96352266e-04
      4.49869287e-04 4.47478407e-04 4.36725124e-04 4.24201542e-04
      4.29147098e-04 4.21692588e-04 3.98361153e-04 4.02511709e-04
      3.97560361e-04 3.81135120e-04 3.67138680e-04 3.72708892e-04
      3.72296839e-04 3.84141284e-04 3.85427848e-04 3.71906295e-04
      3.92105430e-04 4.06433537e-04 3.96470132e-04 4.27241990e-04
      4.54279274e-04 4.87930316e-04 5.26066695e-04 5.61084016e-04
      5.82133362e-04 5.75646351e-04 5.08229132e-04 3.97703348e-04
      3.60665756e-04 3.08424933e-04 2.59386783e-04 2.60952482e-04
      2.93245015e-04 2.23514013e-04 2.21328330e-04 2.18676578e-04
      7.61122938e-05 -1.33478388e-04 -3.79024277e-04 -6.93644397e-04
      -6.64710999e-04 -3.87156702e-04 1.25614224e-05 2.58705288e-04
      2.54280691e-04 3.77137389e-04 6.69947418e-04 6.87544292e-04
      4.70678729e-04 8.30766585e-05 -4.10993642e-04 -5.15489432e-04
      -2.21048700e-04 2.98592407e-04 1.95178218e-04 7.08511943e-05
      -1.60966441e-03 -1.51939143e-03 -1.37270882e-03 -1.18766632e-03
      -1.05593633e-03 -9.51494614e-04 -8.81298503e-04 -8.79302621e-04
      -7.66730052e-04 -5.31755388e-04 -1.63608289e-04 -6.57704732e-05
      -1.75769455e-04 -2.67077994e-04 -3.73856339e-04 -4.19007440e-04
      -4.65653837e-04 -5.03616466e-04 -4.03878308e-04 -4.21284567e-05
      4.27735591e-04 7.40015646e-04 8.12362705e-04 7.02317397e-04
      5.08041237e-04 3.48497182e-04 2.89438613e-04 2.39339424e-04
      2.34935869e-04 3.02354543e-04 4.02566831e-04 5.03207382e-04
      5.42306632e-04 5.63748821e-04 5.40839625e-04 5.29000652e-04
      5.28609671e-04 5.60954679e-04 6.13467360e-04 6.24308654e-04
      6.32219424e-04 5.99399325e-04 5.67747396e-04 5.21491340e-04
      4.91563405e-04 4.62182215e-04 4.40392701e-04 4.36397764e-04
      4.23835852e-04 4.05830564e-04 3.91624897e-04 3.95572570e-04
      3.81104997e-04 3.69648158e-04 3.78011202e-04 3.73898365e-04
      3.72291310e-04 3.61598562e-04 3.52571980e-04 3.43296531e-04
      3.37418198e-04 3.35120509e-04 3.32358264e-04 3.34389391e-04
      3.88578919e-04 4.10328736e-04 4.41641081e-04 4.64239944e-04
      4.78470029e-04 4.49419080e-04 3.62288207e-04 3.15646379e-04
      3.39621911e-04 2.46053241e-04 2.03983815e-04 2.10124577e-04
      2.14442480e-04 2.03580130e-04 2.68149975e-04 2.94373138e-04
      1.78583810e-04 -7.12536130e-05 -3.29560338e-04 -6.55062671e-04
      -6.37606077e-04 -3.96025425e-04 5.36967636e-05 2.62792222e-04
      2.65408249e-04 4.73849970e-04 7.05017475e-04 7.01264536e-04
      5.27866243e-04 6.58806675e-05 -5.22859220e-04 -6.06443791e-04
      -1.63545177e-04 2.88361683e-04 8.09748890e-05 -1.03096689e-04
      -1.79981766e-03 -1.72303256e-03 -1.46639138e-03 -1.24970707e-03
      -1.11006852e-03 -9.56625794e-04 -9.08948597e-04 -9.40337079e-04
      -8.89288262e-04 -5.77018771e-04 -2.13979598e-04 -1.88364706e-04
      -4.22563666e-04 -5.15503809e-04 -4.06436127e-04 -3.26303678e-04
      -2.84982729e-04 -3.01695749e-04 -2.53324077e-04 2.00624836e-05
      4.79695445e-04 8.76404287e-04 1.01597409e-03 8.59810330e-04
      6.16998295e-04 4.16605908e-04 2.96096434e-04 2.30403966e-04
      1.96958164e-04 2.37338725e-04 3.31511110e-04 4.31298511e-04
      4.82697214e-04 5.06126729e-04 5.06211654e-04 5.24334959e-04
      5.29009325e-04 5.54572092e-04 5.80843538e-04 6.10435149e-04
      6.12349249e-04 5.83182147e-04 5.71709301e-04 5.54796425e-04
      5.15604566e-04 5.01349394e-04 4.73559718e-04 4.50005027e-04
      4.33698995e-04 4.37900599e-04 3.97201657e-04 3.82422382e-04
      3.71573871e-04 3.72093054e-04 3.78760975e-04 3.84081883e-04
      3.76968354e-04 3.63274128e-04 3.50587477e-04 3.50608490e-04
      3.37541191e-04 3.20161373e-04 2.97314167e-04 3.14746459e-04
      3.40399682e-04 3.50586226e-04 3.75739852e-04 3.78989353e-04
      3.72604933e-04 3.12499818e-04 2.37253800e-04 2.59342021e-04
      2.56858999e-04 1.55855436e-04 1.49531887e-04 1.68730578e-04
      1.37855299e-04 1.71180407e-04 2.52831262e-04 2.78322725e-04
      1.58980416e-04 -3.67728207e-05 -3.19443381e-04 -6.24316337e-04
      -7.01173674e-04 -3.77274788e-04 4.26356019e-05 1.49162981e-04
      2.59294146e-04 5.46760217e-04 7.11657340e-04 7.49113853e-04
      5.62601665e-04 4.92429172e-05 -6.05233421e-04 -5.67169453e-04
      -1.26308078e-04 2.66387447e-04 -7.13607951e-05 -2.72832171e-04
      -1.84236071e-03 -1.73852127e-03 -1.49537437e-03 -1.31176098e-03
      -1.18831650e-03 -1.03406154e-03 -9.91654582e-04 -1.04351016e-03
      -9.62779217e-04 -6.27459260e-04 -3.54426535e-04 -4.68524988e-04
      -8.62193236e-04 -8.36813939e-04 -4.77434543e-04 -2.08082114e-04
      -1.54692927e-04 -1.95339249e-04 -1.99871269e-04 5.46525771e-05
      5.13094477e-04 9.37832694e-04 1.16128684e-03 1.01402088e-03
      7.24220474e-04 5.02843817e-04 3.30599287e-04 2.50035751e-04
      1.99720802e-04 2.09995938e-04 2.97642866e-04 4.10153880e-04
      4.89127880e-04 5.24581934e-04 5.16033673e-04 5.22414397e-04
      5.37561893e-04 5.66230330e-04 5.65993891e-04 5.76846942e-04
      5.60019165e-04 4.86878329e-04 4.79110458e-04 4.70728264e-04
      4.84439981e-04 4.91485465e-04 4.76782734e-04 4.45436832e-04
      4.28004074e-04 4.36305039e-04 4.08558903e-04 4.05906496e-04
      3.89403081e-04 3.75308795e-04 3.99019831e-04 4.03526006e-04
      4.12925932e-04 3.76013602e-04 3.62903229e-04 3.59726488e-04
      3.46504996e-04 3.11947835e-04 2.90864235e-04 3.02645523e-04
      3.17347207e-04 3.26575449e-04 3.24990280e-04 3.24520399e-04
      3.03322275e-04 2.62992893e-04 1.77067559e-04 1.67759616e-04
      1.40297241e-04 6.63159444e-05 1.00229656e-04 1.21811136e-04
      4.91112005e-05 1.03558225e-04 2.25591662e-04 2.37202577e-04
      8.85337213e-05 -5.86663336e-05 -3.33445525e-04 -6.76621799e-04
      -7.68702943e-04 -3.08087561e-04 2.82005894e-05 1.11634899e-05
      2.46737240e-04 5.64047601e-04 7.42816192e-04 8.06452124e-04
      6.41345978e-04 6.64995459e-05 -6.61385420e-04 -5.84757712e-04
      -1.76732618e-04 1.83258700e-04 -7.24624697e-05 -3.49190435e-04
      -1.83865533e-03 -1.75891060e-03 -1.57077424e-03 -1.45145354e-03
      -1.36174238e-03 -1.23528368e-03 -1.10472343e-03 -1.05203502e-03
      -9.41123406e-04 -7.53599743e-04 -7.88844598e-04 -1.01939624e-03
      -1.22366729e-03 -8.82768771e-04 -3.22238833e-04 -9.59260651e-05
      -7.22286641e-05 -1.58779003e-04 -1.39851007e-04 1.13028800e-04
      5.50249068e-04 1.00201194e-03 1.20514585e-03 1.11057796e-03
      8.09897028e-04 5.33448008e-04 3.40357743e-04 2.40167690e-04
      2.32906707e-04 2.83004279e-04 3.84668325e-04 5.21036272e-04
      6.03305874e-04 6.49998605e-04 6.15693396e-04 5.61601308e-04
      5.37460437e-04 5.49389108e-04 5.30929130e-04 5.09253470e-04
      5.00302354e-04 4.66494210e-04 4.18339041e-04 3.63800384e-04
      3.82945989e-04 4.15211689e-04 4.46930702e-04 4.30380082e-04
      4.11753077e-04 4.33537207e-04 4.38908115e-04 4.18379495e-04
      4.21056611e-04 4.10441455e-04 4.29468899e-04 4.36696835e-04
      4.33443813e-04 4.19546792e-04 3.94554809e-04 3.86084139e-04
      3.62134393e-04 3.45479057e-04 3.17388825e-04 3.18691978e-04
      3.32147931e-04 3.26597947e-04 3.33007687e-04 3.31966789e-04
      2.97981460e-04 2.50679004e-04 1.38345189e-04 9.06893983e-05
      2.43691738e-06 -3.86940192e-05 6.01243773e-05 4.01665675e-05
      -5.47386917e-05 4.20352881e-05 1.67650884e-04 1.81300857e-04
      5.39669491e-05 -1.01730482e-04 -3.77975986e-04 -7.86944991e-04
      -7.36530172e-04 -2.19217720e-04 -5.91597818e-05 -8.10890051e-05
      2.71371071e-04 5.30698511e-04 7.55144400e-04 8.89504503e-04
      6.98691350e-04 1.48741601e-04 -5.91384247e-04 -6.79741090e-04
      -2.72792589e-04 1.41532888e-04 4.22174307e-05 -2.80201260e-04
      -2.18615751e-03 -2.04629358e-03 -1.81890873e-03 -1.71199336e-03
      -1.61358248e-03 -1.44205906e-03 -1.28915359e-03 -1.33037753e-03
      -1.41211227e-03 -1.36226520e-03 -1.34625263e-03 -1.36276730e-03
      -1.25649676e-03 -7.50128529e-04 -2.52388505e-04 -6.36625991e-05
      -2.72448051e-06 -6.95246054e-05 -6.23794258e-05 1.51896602e-04
      5.88609255e-04 9.97241586e-04 1.20631547e-03 1.12445524e-03
      8.13165330e-04 5.28743200e-04 3.61527666e-04 2.83813628e-04
      2.84978189e-04 3.53156647e-04 4.43417637e-04 5.58225613e-04
      6.72905415e-04 7.31164298e-04 7.47471815e-04 7.37840892e-04
      6.99152995e-04 6.19961589e-04 5.79976127e-04 4.96567867e-04
      4.35106340e-04 4.16716357e-04 4.26821323e-04 4.14629234e-04
      3.91193957e-04 4.23092453e-04 4.58219729e-04 4.30268585e-04
      4.23969701e-04 4.37866809e-04 4.37384821e-04 4.42103948e-04
      4.49213141e-04 4.42821794e-04 4.59608273e-04 4.46113088e-04
      4.41421667e-04 4.34536516e-04 4.37684444e-04 4.29722801e-04
      4.41244541e-04 3.99714569e-04 3.95697250e-04 3.95881041e-04
      3.82638565e-04 3.79224686e-04 3.88767105e-04 3.80617043e-04
      3.45048815e-04 2.80242442e-04 1.52981840e-04 3.54633012e-05
      -4.89193844e-05 -6.98262374e-05 3.24192952e-05 -3.62005849e-05
      -1.14860013e-04 -3.47519767e-06 1.11729394e-04 8.75428377e-05
      -4.19108510e-05 -1.56291877e-04 -4.79242211e-04 -9.56985459e-04
      -6.93001668e-04 -2.32913677e-04 -1.94374370e-04 -1.86423087e-04
      2.36360982e-04 4.78807720e-04 7.13439251e-04 8.52044672e-04
      7.22332683e-04 1.34126967e-04 -5.32377686e-04 -7.32862740e-04
      -3.63616680e-04 4.99869057e-05 6.60203877e-05 -2.29265337e-04
      -2.65943259e-03 -2.42411811e-03 -2.19821930e-03 -2.14390364e-03
      -1.99909508e-03 -1.77619152e-03 -1.78838940e-03 -1.91854546e-03
      -2.00833636e-03 -1.85608678e-03 -1.58722023e-03 -1.39309326e-03
      -1.22679397e-03 -7.00272562e-04 -2.65467184e-04 -3.20762447e-05
      2.02264891e-05 2.58958626e-05 2.72715297e-05 2.24551215e-04
      6.31167612e-04 1.03881862e-03 1.22295588e-03 1.11937069e-03
      8.71931319e-04 6.03714259e-04 4.45674290e-04 3.56787205e-04
      3.54944554e-04 3.87204404e-04 4.66862024e-04 5.58257394e-04
      6.66530104e-04 6.93289971e-04 7.13512243e-04 7.27859326e-04
      7.30501022e-04 7.18070543e-04 6.96992385e-04 6.61643862e-04
      5.94186189e-04 5.20828005e-04 4.62855707e-04 4.82541975e-04
      4.80572751e-04 4.71420935e-04 4.92121500e-04 4.92034073e-04
      4.57723421e-04 4.55138477e-04 4.54680499e-04 4.59489267e-04
      4.55513451e-04 4.67331818e-04 4.75316978e-04 4.77454189e-04
      4.85601195e-04 4.94005450e-04 5.02790674e-04 5.37942280e-04
      5.65171067e-04 5.70592121e-04 5.59385750e-04 5.45366202e-04
      5.36557520e-04 4.96683351e-04 4.66499856e-04 4.42978402e-04
      3.98057484e-04 3.05411028e-04 1.77761438e-04 4.50924272e-05
      -6.22062726e-05 -8.17880791e-05 -2.15878845e-05 -9.06163405e-05
      -1.20514436e-04 -6.18031117e-06 4.42292476e-05 2.15487707e-05
      -7.28045707e-05 -1.80283139e-04 -5.47866337e-04 -1.10526895e-03
      -8.81190761e-04 -4.70624567e-04 -3.74136464e-04 -1.78431161e-04
      2.63345166e-04 5.33311453e-04 7.49604194e-04 9.11912648e-04
      7.32475717e-04 7.75937515e-05 -5.72866003e-04 -7.13354792e-04
      -4.36116126e-04 -1.18502576e-04 -6.18206759e-05 -2.67120224e-04
      -3.05284187e-03 -2.85709230e-03 -2.73248111e-03 -2.60703079e-03
      -2.35180743e-03 -2.06217822e-03 -2.19084602e-03 -2.30200845e-03
      -2.26040161e-03 -1.90703955e-03 -1.55663106e-03 -1.31044816e-03
      -1.13085797e-03 -5.80567343e-04 -1.87701968e-04 -2.34304002e-06
      5.94206685e-05 7.85916127e-05 1.05267194e-04 2.90835043e-04
      7.08491600e-04 1.08705868e-03 1.27068232e-03 1.19286508e-03
      9.20984428e-04 6.44455198e-04 4.77364840e-04 3.74161289e-04
      3.44363187e-04 3.74720374e-04 4.61599557e-04 5.68139600e-04
      6.59297279e-04 6.72556867e-04 6.56550808e-04 6.73681556e-04
      6.81071659e-04 6.92639383e-04 7.17136019e-04 7.05456769e-04
      6.63348823e-04 5.95563208e-04 5.12456463e-04 5.10398473e-04
      5.34543535e-04 5.08380879e-04 4.98831389e-04 4.82267147e-04
      4.99013870e-04 4.73624124e-04 4.91250190e-04 4.90709732e-04
      4.99201997e-04 5.10499056e-04 5.05694363e-04 5.14863874e-04
      5.61259745e-04 5.85490954e-04 6.22416206e-04 6.87225780e-04
      7.16073555e-04 7.26181490e-04 7.21199845e-04 6.95118215e-04
      6.41544757e-04 5.87251387e-04 5.14431274e-04 4.65510122e-04
      4.06215317e-04 3.34236276e-04 2.13935011e-04 8.58516651e-05
      -4.13259513e-05 -9.39358579e-05 -5.42377857e-05 -1.19981320e-04
      -8.79574218e-05 -1.61613771e-05 1.36339204e-05 -2.37959921e-05
      -7.15956994e-05 -2.05904653e-04 -5.95984806e-04 -1.23435515e-03
      -1.09903142e-03 -7.71751162e-04 -6.65009138e-04 -3.27158923e-04
      1.74874949e-04 5.38710156e-04 7.84179545e-04 9.04015382e-04
      6.99175871e-04 1.34373440e-05 -7.32110289e-04 -8.54477694e-04
      -5.40404289e-04 -2.55179999e-04 -1.88860184e-04 -3.52148403e-04
      -3.20734363e-03 -3.11881793e-03 -2.95405649e-03 -2.71739671e-03
      -2.29943637e-03 -2.11929763e-03 -2.27008364e-03 -2.43476476e-03
      -2.35589012e-03 -1.87884260e-03 -1.38105080e-03 -1.05297635e-03
      -9.40070197e-04 -4.99275338e-04 -1.70453175e-04 2.16854187e-05
      9.30866154e-05 1.32123707e-04 1.81585798e-04 4.23119229e-04
      8.16010172e-04 1.18805142e-03 1.35767809e-03 1.24783616e-03
      9.32648196e-04 6.42202096e-04 4.78784030e-04 3.78175086e-04
      3.27593065e-04 3.66813998e-04 4.70987259e-04 5.74488135e-04
      6.45795604e-04 6.56698248e-04 6.34222408e-04 6.28470676e-04
      6.23755681e-04 6.44937507e-04 6.62062725e-04 6.69149857e-04
      6.24734035e-04 5.77785540e-04 5.12373459e-04 5.04201162e-04
      5.42375434e-04 5.33764425e-04 5.18502435e-04 4.73667489e-04
      4.95969958e-04 4.96143533e-04 5.27711993e-04 5.51948324e-04
      5.68213232e-04 5.93951205e-04 6.01139094e-04 5.85002708e-04
      6.25601679e-04 6.73739240e-04 7.19290401e-04 7.73172360e-04
      7.83172087e-04 7.94383464e-04 7.82863353e-04 7.35636393e-04
      6.70115347e-04 6.12220610e-04 5.37198095e-04 4.69879160e-04
      4.04453720e-04 3.22456908e-04 2.41447604e-04 1.28981628e-04
      1.03087232e-05 -8.30902281e-05 -8.03521325e-05 -1.06002837e-04
      -6.10141688e-05 -3.55987759e-05 -2.75296770e-05 -5.22892478e-05
      -9.07575086e-05 -2.01384770e-04 -5.45979361e-04 -1.20355072e-03
      -1.18159561e-03 -1.10709306e-03 -1.05788896e-03 -7.04285107e-04
      -2.09661535e-04 3.79367819e-04 7.37336406e-04 7.82292162e-04
      6.05886511e-04 3.48469530e-06 -7.70110986e-04 -9.33830102e-04
      -6.39205100e-04 -3.15056823e-04 -1.75022084e-04 -3.11368261e-04
      -3.16764833e-03 -3.12059186e-03 -2.84243212e-03 -2.45972560e-03
      -2.21744902e-03 -2.24477309e-03 -2.45822337e-03 -2.53231195e-03
      -2.33365293e-03 -1.72460487e-03 -1.00542512e-03 -8.61183216e-04
      -7.92134437e-04 -3.89311637e-04 -1.31212946e-04 1.13246451e-05
      9.56642616e-05 1.76256901e-04 2.64129689e-04 5.48869721e-04
      9.22490493e-04 1.30317803e-03 1.43637380e-03 1.24468736e-03
      9.03110951e-04 6.40485960e-04 4.62837663e-04 3.65412736e-04
      3.63822823e-04 4.28753061e-04 5.26520365e-04 5.98358398e-04
      6.40508253e-04 6.32876239e-04 5.91414457e-04 5.61566092e-04
      5.54751314e-04 5.81940694e-04 6.03921362e-04 6.15315337e-04
      5.82178065e-04 5.53809456e-04 5.38087683e-04 5.09159989e-04
      5.37167536e-04 5.55053412e-04 5.46852883e-04 5.24923787e-04
      5.02078328e-04 5.24573785e-04 5.67065727e-04 6.11330674e-04
      6.40033337e-04 6.60677091e-04 6.77744858e-04 6.38463709e-04
      6.59975456e-04 6.84801431e-04 7.33149704e-04 7.87627883e-04
      7.93537067e-04 7.69747363e-04 7.36688729e-04 7.04152626e-04
      6.53652358e-04 6.02715183e-04 5.44150709e-04 4.76783258e-04
      4.10791428e-04 3.39364691e-04 2.64388393e-04 1.94435561e-04
      9.07533176e-05 -3.35314471e-05 -7.58970928e-05 -9.39387173e-05
      -4.60187039e-05 -4.55339105e-05 -5.93008190e-05 -8.06636817e-05
      -1.32005807e-04 -2.34314211e-04 -5.16817614e-04 -1.10347546e-03
      -1.17228820e-03 -1.28479034e-03 -1.33307080e-03 -1.08123512e-03
      -5.61989320e-04 9.01325984e-05 5.16597298e-04 5.88276715e-04
      4.62945027e-04 5.10701648e-05 -6.37708814e-04 -9.71805945e-04
      -7.16200622e-04 -3.23239830e-04 -1.30633140e-04 -3.18293314e-04
      -3.01909307e-03 -2.85576936e-03 -2.44206307e-03 -2.27035838e-03
      -2.20378954e-03 -2.36022216e-03 -2.56572617e-03 -2.50390940e-03
      -2.20615556e-03 -1.40592013e-03 -7.80722592e-04 -7.64537312e-04
      -7.19432603e-04 -3.15324520e-04 -8.85078698e-05 3.36807534e-05
      1.31993525e-04 2.30881356e-04 4.04012710e-04 6.65022177e-04
      1.00532512e-03 1.35441322e-03 1.43779279e-03 1.20892527e-03
      8.80096806e-04 6.13480806e-04 4.55835660e-04 3.88866552e-04
      4.24661790e-04 5.01275179e-04 5.98725979e-04 6.46450731e-04
      6.55710755e-04 6.00042345e-04 5.69658936e-04 5.32205333e-04
      5.19731897e-04 5.36263338e-04 5.54606784e-04 5.85111906e-04
      5.52072364e-04 5.36462583e-04 5.30704216e-04 5.26363146e-04
      5.38085413e-04 5.77236468e-04 5.81930974e-04 5.57109830e-04
      5.37094194e-04 5.51732839e-04 5.75648446e-04 6.40722108e-04
      6.89260254e-04 7.03864847e-04 6.97290525e-04 6.64398947e-04
      6.69183617e-04 6.65371306e-04 7.13957765e-04 7.54578388e-04
      7.63884163e-04 7.50324805e-04 7.13122950e-04 6.68169814e-04
      6.33813906e-04 5.99305611e-04 5.46782860e-04 4.88591497e-04
      4.24289319e-04 3.54380056e-04 2.92502606e-04 2.40878711e-04
      1.68141443e-04 4.51982305e-05 7.02968555e-06 -5.41025584e-05
      -8.45257673e-05 -2.56268031e-05 -2.87385337e-05 -5.84532099e-05
      -1.26924890e-04 -2.32388498e-04 -4.70027648e-04 -9.69697256e-04
      -1.12730532e-03 -1.34215795e-03 -1.38427666e-03 -1.26910268e-03
      -8.40979861e-04 -1.67017934e-04 2.01289862e-04 2.64833361e-04
      2.67500815e-04 -5.28764758e-05 -5.63024718e-04 -9.47996858e-04
      -7.61632633e-04 -2.28976118e-04 -8.20081768e-05 -3.46794201e-04
      -2.68321391e-03 -2.45415443e-03 -2.30475701e-03 -2.29212572e-03
      -2.26304727e-03 -2.51047686e-03 -2.61121616e-03 -2.56367004e-03
      -2.05348805e-03 -1.14922656e-03 -6.62833045e-04 -6.84967381e-04
      -5.01092349e-04 -1.91735278e-04 -6.60714504e-05 3.80575475e-05
      1.56389273e-04 3.03940848e-04 4.80079441e-04 7.77435140e-04
      1.08101766e-03 1.34411035e-03 1.36095833e-03 1.11521967e-03
      8.20633606e-04 5.93605568e-04 4.58785944e-04 4.34650719e-04
      4.73123830e-04 5.66559902e-04 6.62551785e-04 7.09559710e-04
      7.06089253e-04 6.54586358e-04 6.08072791e-04 5.46395662e-04
      5.03271120e-04 4.99366259e-04 5.30756195e-04 5.42874448e-04
      5.48245385e-04 5.39949280e-04 5.15762076e-04 5.24812960e-04
      5.57723397e-04 5.88639232e-04 6.05416833e-04 5.76302293e-04
      5.76511200e-04 5.77688799e-04 6.03212859e-04 6.52644143e-04
      6.77341071e-04 6.78352313e-04 6.70418318e-04 6.55414420e-04
      6.45663473e-04 6.76573254e-04 7.20188429e-04 7.65232195e-04
      7.43702869e-04 7.26626313e-04 6.99653057e-04 6.56826363e-04
      6.35254837e-04 6.12593605e-04 5.61983557e-04 5.13517181e-04
      4.73471911e-04 3.96978605e-04 3.10534902e-04 2.48870434e-04
      2.10268510e-04 1.27324209e-04 7.59418908e-05 3.88152375e-06
      -1.05148843e-04 -4.85876590e-05 -2.88636093e-05 -3.34008510e-05
      -1.08553148e-04 -2.26471500e-04 -4.19002172e-04 -8.72882316e-04
      -1.05291815e-03 -1.31598860e-03 -1.37656427e-03 -1.34750630e-03
      -1.01823313e-03 -4.64531069e-04 -1.39893702e-04 3.94409253e-05
      1.37974639e-04 -7.25955833e-05 -5.65600058e-04 -8.18689354e-04
      -7.37204798e-04 -3.16140184e-04 -7.03114201e-05 -4.14747337e-04
      -2.40538176e-03 -2.37727468e-03 -2.33326224e-03 -2.31490890e-03
      -2.45439028e-03 -2.58251000e-03 -2.57159094e-03 -2.45152763e-03
      -1.73753465e-03 -7.38963485e-04 -3.09288152e-04 -3.75365024e-04
      -2.24020114e-04 -1.51272092e-04 -7.09823726e-05 5.40919173e-05
      1.73294291e-04 3.42655112e-04 5.47064119e-04 8.32045451e-04
      1.13690330e-03 1.34965836e-03 1.29790010e-03 1.00214919e-03
      7.24822283e-04 5.22262650e-04 4.44286590e-04 4.67313774e-04
      5.45064744e-04 6.47079549e-04 7.07235362e-04 7.39002600e-04
      7.28025159e-04 6.73946808e-04 6.21588610e-04 5.79459069e-04
      5.41981077e-04 5.15747815e-04 5.31010155e-04 5.59598266e-04
      5.66887262e-04 5.29071607e-04 5.18646732e-04 5.14766783e-04
      5.61292865e-04 5.93531469e-04 6.20306761e-04 6.04517176e-04
      5.86776121e-04 6.04667352e-04 5.99724881e-04 6.35266188e-04
      6.43473468e-04 6.53155323e-04 6.39075588e-04 6.27352390e-04
      6.42792438e-04 6.83744147e-04 7.40752614e-04 7.72698899e-04
      7.65106466e-04 7.46119244e-04 7.03443831e-04 6.79369317e-04
      6.69045025e-04 6.44737971e-04 5.96457918e-04 5.55866223e-04
      5.08832454e-04 4.28298954e-04 3.42340907e-04 2.55200197e-04
      2.30069476e-04 1.55845963e-04 4.41669981e-05 -5.60612316e-05
      -2.10925296e-04 -2.04192751e-04 -1.15052557e-04 -6.01359243e-05
      -9.65429863e-05 -1.90979219e-04 -3.69592948e-04 -8.08268320e-04
      -1.03942421e-03 -1.31345226e-03 -1.37881178e-03 -1.42999925e-03
      -1.13467069e-03 -7.14950380e-04 -4.29798878e-04 -2.23293071e-04
      -4.49435502e-05 -1.29103137e-04 -4.72750893e-04 -5.20499074e-04
      -4.95154585e-04 -3.15836660e-04 -8.65912443e-05 -3.42278247e-04
      -2.13515549e-03 -2.17782869e-03 -2.20974651e-03 -2.44633015e-03
      -2.53194408e-03 -2.52375356e-03 -2.45242356e-03 -2.12428649e-03
      -1.28711550e-03 -4.08364082e-04 -1.30621585e-04 -1.19415607e-04
      -1.24608341e-04 -1.50249194e-04 -7.54655048e-05 7.43220080e-05
      2.17965338e-04 3.78903438e-04 5.81953500e-04 8.67597701e-04
      1.17091800e-03 1.31671096e-03 1.17188774e-03 8.47668853e-04
      5.68560790e-04 4.27667226e-04 4.06944571e-04 5.14594896e-04
      6.11232186e-04 6.85401785e-04 7.10054534e-04 6.79109886e-04
      6.61375641e-04 5.74389240e-04 5.23020281e-04 4.76523041e-04
      4.16102906e-04 4.33935580e-04 4.62546857e-04 5.21077600e-04
      5.52834652e-04 5.33653889e-04 5.08069003e-04 4.84284421e-04
      5.15160849e-04 5.91946940e-04 6.30478025e-04 6.22878142e-04
      6.11376308e-04 6.11403026e-04 6.08979841e-04 6.27836620e-04
      6.29829825e-04 6.07362366e-04 6.07932336e-04 6.09147421e-04
      6.35116885e-04 7.05036393e-04 7.59220507e-04 7.94531894e-04
      7.87168334e-04 7.61965290e-04 7.26358208e-04 6.87235501e-04
      7.02630845e-04 7.03892554e-04 6.69807428e-04 6.33920077e-04
      5.69544267e-04 4.83177457e-04 3.91276000e-04 2.97845138e-04
      2.19367852e-04 5.25354735e-05 -1.30537213e-04 -2.90646742e-04
      -4.28749598e-04 -4.12639434e-04 -2.93911609e-04 -2.12943603e-04
      -1.81246956e-04 -2.11664315e-04 -3.54225253e-04 -7.76567729e-04
      -9.94581613e-04 -1.18960219e-03 -1.27348991e-03 -1.39939727e-03
      -1.10304065e-03 -7.60269410e-04 -7.15752947e-04 -6.51242619e-04
      -3.48886242e-04 -2.56596686e-04 -5.07233781e-04 -4.45850106e-04
      -4.09152242e-04 -2.86579307e-04 -5.67105235e-05 -5.50356090e-05
      -1.90671510e-03 -2.10130122e-03 -2.31331470e-03 -2.46245670e-03
      -2.41659908e-03 -2.41772435e-03 -2.25721952e-03 -1.73526304e-03
      -1.07145612e-03 -4.11720743e-04 -8.29179480e-05 -3.15824946e-06
      -1.03856633e-04 -9.92922360e-05 -5.77040191e-06 1.27742722e-04
      2.62039044e-04 4.21285484e-04 5.95230144e-04 8.54519894e-04
      1.11104874e-03 1.17087772e-03 9.88126849e-04 6.79288642e-04
      4.37974348e-04 3.70399241e-04 4.32903966e-04 5.77428378e-04
      6.42671192e-04 6.30373368e-04 5.18458663e-04 3.18857696e-04
      3.57893703e-04 3.46318790e-04 2.39892572e-04 1.62548997e-04
      5.11420039e-05 1.05958039e-04 1.19819968e-04 3.13882512e-04
      4.69519029e-04 5.39066794e-04 5.27082593e-04 4.90607054e-04
      5.03868330e-04 5.59410837e-04 6.18625956e-04 6.28795009e-04
      6.09041890e-04 6.07013877e-04 5.84643451e-04 5.89197909e-04
      5.85342990e-04 5.89135394e-04 5.91560965e-04 6.16797130e-04
      6.55448763e-04 7.30427681e-04 7.67895195e-04 8.15832813e-04
